{"learner":{"attributes":{"scikit_learn":"{\"_estimator_type\": \"regressor\"}"},"feature_names":["CLr","EVI","EVI2","LSWI","MNDVI","MNDWI","NDII","NDVI"],"feature_types":["float","float","float","float","float","float","float","float"],"gradient_booster":{"model":{"gbtree_model_param":{"num_parallel_tree":"1","num_trees":"100"},"iteration_indptr":[0,1,2,3,4,5,6,7,8,9,10,11,12,13,14,15,16,17,18,19,20,21,22,23,24,25,26,27,28,29,30,31,32,33,34,35,36,37,38,39,40,41,42,43,44,45,46,47,48,49,50,51,52,53,54,55,56,57,58,59,60,61,62,63,64,65,66,67,68,69,70,71,72,73,74,75,76,77,78,79,80,81,82,83,84,85,86,87,88,89,90,91,92,93,94,95,96,97,98,99,100],"tree_info":[0,0,0,0,0,0,0,0,0,0,0,0,0,0,0,0,0,0,0,0,0,0,0,0,0,0,0,0,0,0,0,0,0,0,0,0,0,0,0,0,0,0,0,0,0,0,0,0,0,0,0,0,0,0,0,0,0,0,0,0,0,0,0,0,0,0,0,0,0,0,0,0,0,0,0,0,0,0,0,0,0,0,0,0,0,0,0,0,0,0,0,0,0,0,0,0,0,0,0,0],"trees":[{"base_weights":[-0E0,2.3598483E0,-2.0787878E0,-2.4555984E-1,3.4622178E0,-2.2234068E0,8.192494E-1,-4.2479342E-1,1.5878471E0,2.4582012E0,4.2937174E0,-7.9413307E-1,-2.30427E0,-2.5657535E-1,1.862381E0,-5.703125E-2,2.5908267E-1,-6.767799E-2,3.0412158E-1,2.9472014E-1,-9.926507E-2,4.6092257E-1,1.2971678E-1,4.0184725E-2,-1.6236143E-1,-2.6226163E-1,-2.0724323E-1,4.8580173E-2,-5.7157934E-2,1.3291335E-1,2.6169226E-1],"categories":[],"categories_nodes":[],"categories_segments":[],"categories_sizes":[],"default_left":[0,0,0,0,0,0,0,0,0,0,0,0,0,0,0,0,0,0,0,0,0,0,0,0,0,0,0,0,0,0,0],"id":0,"left_children":[1,3,5,7,9,11,13,15,17,19,21,23,25,27,29,-1,-1,-1,-1,-1,-1,-1,-1,-1,-1,-1,-1,-1,-1,-1,-1],"loss_changes":[8.212014E3,2.252916E3,3.749707E2,7.745249E1,4.487661E2,9.586865E1,4.8894173E1,9.518521E1,7.141278E1,4.283628E2,2.77062E2,4.740065E1,5.328662E1,5.4309907E0,4.979027E0,0E0,0E0,0E0,0E0,0E0,0E0,0E0,0E0,0E0,0E0,0E0,0E0,0E0,0E0,0E0,0E0],"parents":[2147483647,0,0,1,1,2,2,3,3,4,4,5,5,6,6,7,7,8,8,9,9,10,10,11,11,12,12,13,13,14,14],"right_children":[2,4,6,8,10,12,14,16,18,20,22,24,26,28,30,-1,-1,-1,-1,-1,-1,-1,-1,-1,-1,-1,-1,-1,-1,-1,-1],"split_conditions":[3.7238252E-1,2.950303E-1,3.4780073E-1,5.592838E-1,3.4744346E-1,6.414841E-1,3.5878852E-1,1.5376804E0,3.2226807E-1,5.541917E-1,3.525646E-1,1.1134818E0,-1.6407378E-1,3.830446E-1,2.0175526E0,-5.703125E-2,2.5908267E-1,-6.767799E-2,3.0412158E-1,2.9472014E-1,-9.926507E-2,4.6092257E-1,1.2971678E-1,4.0184725E-2,-1.6236143E-1,-2.6226163E-1,-2.0724323E-1,4.8580173E-2,-5.7157934E-2,1.3291335E-1,2.6169226E-1],"split_indices":[3,1,2,6,1,6,2,0,3,6,3,0,5,3,0,0,0,0,0,0,0,0,0,0,0,0,0,0,0,0,0],"split_type":[0,0,0,0,0,0,0,0,0,0,0,0,0,0,0,0,0,0,0,0,0,0,0,0,0,0,0,0,0,0,0],"sum_hessian":[1.672E3,7.83E2,8.89E2,2.33E2,5.5E2,8.47E2,4.2E1,2.13E2,2E1,2.51E2,2.99E2,4.6E1,8.01E2,2.1E1,2.1E1,2.04E2,9E0,8E0,1.2E1,2.2E2,3.1E1,2.7E2,2.9E1,1.9E1,2.7E1,3.33E2,4.68E2,6E0,1.5E1,1.4E1,7E0],"tree_param":{"num_deleted":"0","num_feature":"8","num_nodes":"31","size_leaf_vector":"1"}},{"base_weights":[5.611129E-4,2.141364E0,-1.8581947E0,-3.1757036E-1,3.1115847E0,-1.9922221E0,8.445383E-1,-4.9559665E-1,1.9881161E0,2.1868396E0,3.9282665E0,-8.9580154E-1,-2.085811E0,-1.8436944E-1,1.6709388E0,-6.4727687E-3,-1.3125345E-1,3.841543E-1,7.873275E-2,2.626357E-1,-9.663395E-2,4.1872144E-1,1.6660647E-1,3.1116653E-2,-1.3968328E-1,-2.3984492E-1,-1.8680386E-1,3.9520063E-2,-4.681281E-2,1.1790498E-1,2.3486374E-1],"categories":[],"categories_nodes":[],"categories_segments":[],"categories_sizes":[],"default_left":[0,0,0,0,0,0,0,0,0,0,0,0,0,0,0,0,0,0,0,0,0,0,0,0,0,0,0,0,0,0,0],"id":1,"left_children":[1,3,5,7,9,11,13,15,17,19,21,23,25,27,29,-1,-1,-1,-1,-1,-1,-1,-1,-1,-1,-1,-1,-1,-1,-1,-1],"loss_changes":[6.6612593E3,1.8573489E3,3.2636426E2,9.155054E1,4.122119E2,8.54646E1,3.7019196E1,7.2287895E1,3.212174E1,3.6857568E2,1.6524707E2,4.2269485E1,4.8607178E1,3.4814575E0,4.8785324E0,0E0,0E0,0E0,0E0,0E0,0E0,0E0,0E0,0E0,0E0,0E0,0E0,0E0,0E0,0E0,0E0],"parents":[2147483647,0,0,1,1,2,2,3,3,4,4,5,5,6,6,7,7,8,8,9,9,10,10,11,11,12,12,13,13,14,14],"right_children":[2,4,6,8,10,12,14,16,18,20,22,24,26,28,30,-1,-1,-1,-1,-1,-1,-1,-1,-1,-1,-1,-1,-1,-1,-1,-1],"split_conditions":[3.7125224E-1,2.9387856E-1,3.4848723E-1,5.622413E-1,3.4744346E-1,6.448025E-1,3.5878852E-1,2.4504232E-1,3.2919046E-1,5.622413E-1,6.202354E-1,2.8562853E-1,-1.6407378E-1,3.830446E-1,2.0175526E0,-6.4727687E-3,-1.3125345E-1,3.841543E-1,7.873275E-2,2.626357E-1,-9.663395E-2,4.1872144E-1,1.6660647E-1,3.1116653E-2,-1.3968328E-1,-2.3984492E-1,-1.8680386E-1,3.9520063E-2,-4.681281E-2,1.1790498E-1,2.3486374E-1],"split_indices":[3,1,2,6,1,6,2,3,4,6,6,1,5,3,0,0,0,0,0,0,0,0,0,0,0,0,0,0,0,0,0],"split_type":[0,0,0,0,0,0,0,0,0,0,0,0,0,0,0,0,0,0,0,0,0,0,0,0,0,0,0,0,0,0,0],"sum_hessian":[1.672E3,7.77E2,8.95E2,2.2E2,5.57E2,8.53E2,4.2E1,2.05E2,1.5E1,2.63E2,2.94E2,6.8E1,7.85E2,1.9E1,2.3E1,1.35E2,7E1,5E0,1E1,2.31E2,3.2E1,2.63E2,3.1E1,2E1,4.8E1,3.18E2,4.67E2,6E0,1.3E1,1.5E1,8E0],"tree_param":{"num_deleted":"0","num_feature":"8","num_nodes":"31","size_leaf_vector":"1"}},{"base_weights":[1.0410463E-3,1.8291007E0,-1.7667546E0,-2.0388864E-1,2.64697E0,-6.381335E-1,-1.8910296E0,1.5402853E-1,-8.127942E-1,2.9862556E0,4.5816925E-1,-1.1495923E0,1.01381175E-1,-2.2979417E0,-1.6516607E0,-4.601049E-2,1.3571523E-1,-1.2663503E-1,1.301105E-1,1.9857256E-1,3.7016022E-1,-1.077793E-1,1.0248303E-1,8.7444134E-2,-1.4937441E-1,-2.5669357E-2,9.476142E-2,-1.3104768E-1,-2.31072E-1,-8.775554E-2,-2.1159635E-1],"categories":[],"categories_nodes":[],"categories_segments":[],"categories_sizes":[],"default_left":[0,0,0,0,0,0,0,0,0,0,0,0,0,0,0,0,0,0,0,0,0,0,0,0,0,0,0,0,0,0,0],"id":2,"left_children":[1,3,5,7,9,11,13,15,17,19,21,23,25,27,29,-1,-1,-1,-1,-1,-1,-1,-1,-1,-1,-1,-1,-1,-1,-1,-1],"loss_changes":[5.4097646E3,1.3692021E3,1.1790161E2,5.184232E1,4.3420996E2,3.2749256E1,7.041943E1,1.1154593E2,8.6016106E1,3.5566992E2,7.072885E1,3.6893425E1,1.1220866E1,1.5539551E-1,1.7252148E2,0E0,0E0,0E0,0E0,0E0,0E0,0E0,0E0,0E0,0E0,0E0,0E0,0E0,0E0,0E0,0E0],"parents":[2147483647,0,0,1,1,2,2,3,3,4,4,5,5,6,6,7,7,8,8,9,9,10,10,11,11,12,12,13,13,14,14],"right_children":[2,4,6,8,10,12,14,16,18,20,22,24,26,28,30,-1,-1,-1,-1,-1,-1,-1,-1,-1,-1,-1,-1,-1,-1,-1,-1],"split_conditions":[3.7890822E-1,2.950303E-1,3.998055E-1,1.3841434E0,3.525646E-1,3.4045216E-1,-1.6970934E-1,4.4264945E-1,1.5480982E0,3.3622745E-1,3.3293685E-1,1.1134818E0,3.5878852E-1,2.756165E-1,-1.0965449E-2,-4.601049E-2,1.3571523E-1,-1.2663503E-1,1.301105E-1,1.9857256E-1,3.7016022E-1,-1.077793E-1,1.0248303E-1,8.7444134E-2,-1.4937441E-1,-2.5669357E-2,9.476142E-2,-1.3104768E-1,-2.31072E-1,-8.775554E-2,-2.1159635E-1],"split_indices":[3,1,3,0,3,2,5,6,0,1,2,0,2,2,5,0,0,0,0,0,0,0,0,0,0,0,0,0,0,0,0],"split_type":[0,0,0,0,0,0,0,0,0,0,0,0,0,0,0,0,0,0,0,0,0,0,0,0,0,0,0,0,0,0,0],"sum_hessian":[1.672E3,8.22E2,8.5E2,2.36E2,5.86E2,8.5E1,7.65E2,1.49E2,8.7E1,5.07E2,7.9E1,5E1,3.5E1,2.8E2,4.85E2,9.9E1,5E1,7.2E1,1.5E1,2.13E2,2.94E2,2.1E1,5.8E1,7E0,4.3E1,2.5E1,1E1,5E0,2.75E2,1.83E2,3.02E2],"tree_param":{"num_deleted":"0","num_feature":"8","num_nodes":"31","size_leaf_vector":"1"}},{"base_weights":[9.2036516E-4,1.6470006E0,-1.5908834E0,-1.830644E-1,2.38325E0,-5.741206E-1,-1.7028295E0,1.3915706E-1,-7.313616E-1,2.6887693E0,4.121611E-1,-1.0356512E0,9.28845E-2,-1.4949423E0,-2.1155984E0,-4.145545E-2,1.2240982E-1,3.8441148E-2,-1.4773327E-1,1.788081E-1,3.332697E-1,-2.0830687E-2,1.7126833E-1,7.979278E-2,-1.3477646E-1,-2.3201153E-2,8.614674E-2,-1.6544464E-1,4.8350424E-2,-1.5788575E-1,-2.1446279E-1],"categories":[],"categories_nodes":[],"categories_segments":[],"categories_sizes":[],"default_left":[0,0,0,0,0,0,0,0,0,0,0,0,0,0,0,0,0,0,0,0,0,0,0,0,0,0,0,0,0,0,0],"id":3,"left_children":[1,3,5,7,9,11,13,15,17,19,21,23,25,27,29,-1,-1,-1,-1,-1,-1,-1,-1,-1,-1,-1,-1,-1,-1,-1,-1],"loss_changes":[4.3862817E3,1.1095532E3,9.565796E1,4.2032528E1,3.5207666E2,2.6664997E1,6.2206055E1,9.070009E1,7.392262E1,2.881577E2,6.506179E1,3.0316902E1,9.252359E0,1.6280469E2,1.9921875E-1,0E0,0E0,0E0,0E0,0E0,0E0,0E0,0E0,0E0,0E0,0E0,0E0,0E0,0E0,0E0,0E0],"parents":[2147483647,0,0,1,1,2,2,3,3,4,4,5,5,6,6,7,7,8,8,9,9,10,10,11,11,12,12,13,13,14,14],"right_children":[2,4,6,8,10,12,14,16,18,20,22,24,26,28,30,-1,-1,-1,-1,-1,-1,-1,-1,-1,-1,-1,-1,-1,-1,-1,-1],"split_conditions":[3.7890822E-1,2.950303E-1,3.998055E-1,1.3841434E0,3.525646E-1,3.4045216E-1,3.2948473E-1,4.4264945E-1,2.60806E-1,3.3622745E-1,3.491616E-1,1.1134818E0,3.5878852E-1,3.199037E-1,4.0586844E-1,-4.145545E-2,1.2240982E-1,3.8441148E-2,-1.4773327E-1,1.788081E-1,3.332697E-1,-2.0830687E-2,1.7126833E-1,7.979278E-2,-1.3477646E-1,-2.3201153E-2,8.614674E-2,-1.6544464E-1,4.8350424E-2,-1.5788575E-1,-2.1446279E-1],"split_indices":[3,1,3,0,3,2,1,6,3,1,2,0,2,2,3,0,0,0,0,0,0,0,0,0,0,0,0,0,0,0,0],"split_type":[0,0,0,0,0,0,0,0,0,0,0,0,0,0,0,0,0,0,0,0,0,0,0,0,0,0,0,0,0,0,0],"sum_hessian":[1.672E3,8.22E2,8.5E2,2.36E2,5.86E2,8.5E1,7.65E2,1.49E2,8.7E1,5.07E2,7.9E1,5E1,3.5E1,5.12E2,2.53E2,9.9E1,5E1,3.5E1,5.2E1,2.13E2,2.94E2,5.4E1,2.5E1,7E0,4.3E1,2.5E1,1E1,4.74E2,3.8E1,1.6E1,2.37E2],"tree_param":{"num_deleted":"0","num_feature":"8","num_nodes":"31","size_leaf_vector":"1"}},{"base_weights":[9.136135E-4,1.5669383E0,-1.3587606E0,-2.4007736E-1,2.2799911E0,-1.4618386E0,5.7554674E-1,-3.8453507E-1,1.6285704E0,1.609556E0,2.898114E0,-6.2813103E-1,-1.5321578E0,-1.9617614E-1,1.2953E0,5.4542508E-2,-7.446233E-2,3.30631E-1,5.562971E-2,1.9731541E-1,-1.0585022E-1,9.493195E-2,3.1114438E-1,3.5741996E-2,-1.0483068E-1,-1.7767605E-1,-1.3157004E-1,7.706725E-3,-5.690993E-2,8.698991E-2,1.896535E-1],"categories":[],"categories_nodes":[],"categories_segments":[],"categories_sizes":[],"default_left":[0,0,0,0,0,0,0,0,0,0,0,0,0,0,0,0,0,0,0,0,0,0,0,0,0,0,0,0,0,0,0],"id":4,"left_children":[1,3,5,7,9,11,13,15,17,19,21,23,25,27,29,-1,-1,-1,-1,-1,-1,-1,-1,-1,-1,-1,-1,-1,-1,-1,-1],"loss_changes":[3.564441E3,1.0032024E3,1.7957837E2,6.01587E1,2.2612622E2,4.871216E1,2.5914726E1,6.9408806E1,2.6558369E1,2.641073E2,1.167876E2,2.8602894E1,3.8862793E1,2.436734E0,4.2119446E0,0E0,0E0,0E0,0E0,0E0,0E0,0E0,0E0,0E0,0E0,0E0,0E0,0E0,0E0,0E0,0E0],"parents":[2147483647,0,0,1,1,2,2,3,3,4,4,5,5,6,6,7,7,8,8,9,9,10,10,11,11,12,12,13,13,14,14],"right_children":[2,4,6,8,10,12,14,16,18,20,22,24,26,28,30,-1,-1,-1,-1,-1,-1,-1,-1,-1,-1,-1,-1,-1,-1,-1,-1],"split_conditions":[3.7125224E-1,2.9387856E-1,3.4780073E-1,5.622413E-1,3.4801713E-1,6.448025E-1,3.5878852E-1,1.08285464E-1,3.2919046E-1,5.622413E-1,4.5209122E-1,2.8562853E-1,4.873851E-1,3.8555387E-1,2.0175526E0,5.4542508E-2,-7.446233E-2,3.30631E-1,5.562971E-2,1.9731541E-1,-1.0585022E-1,9.493195E-2,3.1114438E-1,3.5741996E-2,-1.0483068E-1,-1.7767605E-1,-1.3157004E-1,7.706725E-3,-5.690993E-2,8.698991E-2,1.896535E-1],"split_indices":[3,1,2,6,1,6,2,3,4,6,4,1,3,3,0,0,0,0,0,0,0,0,0,0,0,0,0,0,0,0,0],"split_type":[0,0,0,0,0,0,0,0,0,0,0,0,0,0,0,0,0,0,0,0,0,0,0,0,0,0,0,0,0,0,0],"sum_hessian":[1.672E3,7.77E2,8.95E2,2.2E2,5.57E2,8.5E2,4.5E1,2.05E2,1.5E1,2.69E2,2.88E2,6.7E1,7.83E2,2.2E1,2.3E1,5.7E1,1.48E2,5E0,1E1,2.37E2,3.2E1,2.9E1,2.59E2,2E1,4.7E1,3.64E2,4.19E2,1.3E1,9E0,1.5E1,8E0],"tree_param":{"num_deleted":"0","num_feature":"8","num_nodes":"31","size_leaf_vector":"1"}},{"base_weights":[1.2664022E-3,1.4465206E0,-1.1945894E0,-3.1892636E-1,2.0714803E0,-1.2980477E0,7.01239E-1,-4.9582937E-1,1.5982603E0,1.3513119E0,2.63927E0,-6.9666034E-1,-1.4008559E0,1.3983443E0,1.9284779E-1,4.1968416E-2,-8.7307476E-2,3.135458E-1,4.656565E-2,1.6551484E-1,-1.4332683E-1,9.288012E-2,2.9015326E-1,4.5055013E-2,-1.04986094E-1,-1.6784719E-1,-1.1844436E-1,7.607279E-2,1.6754664E-1,-1.9182542E-2,7.621203E-2],"categories":[],"categories_nodes":[],"categories_segments":[],"categories_sizes":[],"default_left":[0,0,0,0,0,0,0,0,0,0,0,0,0,0,0,0,0,0,0,0,0,0,0,0,0,0,0,0,0,0,0],"id":5,"left_children":[1,3,5,7,9,11,13,15,17,19,21,23,25,27,29,-1,-1,-1,-1,-1,-1,-1,-1,-1,-1,-1,-1,-1,-1,-1,-1],"loss_changes":[2.8932253E3,8.371625E2,1.806333E2,6.817427E1,2.25021E2,5.254248E1,1.6582521E1,6.3615055E1,2.7777447E1,2.1306259E2,1.3688257E2,5.2803158E1,4.2244507E1,2.0157547E0,6.553756E0,0E0,0E0,0E0,0E0,0E0,0E0,0E0,0E0,0E0,0E0,0E0,0E0,0E0,0E0,0E0,0E0],"parents":[2147483647,0,0,1,1,2,2,3,3,4,4,5,5,6,6,7,7,8,8,9,9,10,10,11,11,12,12,13,13,14,14],"right_children":[2,4,6,8,10,12,14,16,18,20,22,24,26,28,30,-1,-1,-1,-1,-1,-1,-1,-1,-1,-1,-1,-1,-1,-1,-1,-1],"split_conditions":[3.6352548E-1,2.915848E-1,3.491616E-1,5.520642E-1,3.3622745E-1,6.6058856E-1,6.399046E-1,1.010392E-1,2.85002E-1,5.622413E-1,4.5209122E-1,3.5523328E-1,4.873851E-1,2.0175526E0,3.5878852E-1,4.1968416E-2,-8.7307476E-2,3.135458E-1,4.656565E-2,1.6551484E-1,-1.4332683E-1,9.288012E-2,2.9015326E-1,4.5055013E-2,-1.04986094E-1,-1.6784719E-1,-1.1844436E-1,7.607279E-2,1.6754664E-1,-1.9182542E-2,7.621203E-2],"split_indices":[3,1,2,6,1,6,6,3,1,6,4,4,3,0,2,0,0,0,0,0,0,0,0,0,0,0,0,0,0,0,0],"split_type":[0,0,0,0,0,0,0,0,0,0,0,0,0,0,0,0,0,0,0,0,0,0,0,0,0,0,0,0,0,0,0],"sum_hessian":[1.672E3,7.57E2,9.15E2,1.98E2,5.59E2,8.68E2,4.7E1,1.82E2,1.6E1,2.48E2,3.11E2,1.28E2,7.4E2,1.9E1,2.8E1,5.3E1,1.29E2,6E0,1E1,2.24E2,2.4E1,4.2E1,2.69E2,3E1,9.8E1,3.21E2,4.19E2,7E0,1.2E1,1.7E1,1.1E1],"tree_param":{"num_deleted":"0","num_feature":"8","num_nodes":"31","size_leaf_vector":"1"}},{"base_weights":[1.5607653E-3,1.2080443E0,-1.1651108E0,-1.3767631E-1,1.7494885E0,-3.649096E-1,-1.2532991E0,-5.77462E-1,1.8682027E-1,2.163494E0,7.538113E-1,-1.9474708E-1,-1.4983134E-1,-1.5666276E0,-1.0135926E0,5.3836267E-2,-1.3196152E-1,-1.3448228E-1,5.4160506E-2,1.5735596E-1,3.3973143E-1,-9.1560766E-2,1.1664959E-1,-3.315672E-2,6.3478686E-2,-0E0,-1.5953945E-1,-4.1004783E-3,-1.4432487E-1],"categories":[],"categories_nodes":[],"categories_segments":[],"categories_sizes":[],"default_left":[0,0,0,0,0,0,0,0,0,0,0,0,0,0,0,0,0,0,0,0,0,0,0,0,0,0,0,0,0],"id":6,"left_children":[1,3,5,7,9,11,13,15,17,19,21,23,-1,25,27,-1,-1,-1,-1,-1,-1,-1,-1,-1,-1,-1,-1,-1,-1],"loss_changes":[2.3562766E3,6.000669E2,5.943445E1,3.3968967E1,2.400481E2,1.6125105E1,5.5685913E1,8.442796E1,7.5094345E1,2.9549634E2,1.2096933E2,8.805918E0,0E0,1.47456665E1,1.8240515E2,0E0,0E0,0E0,0E0,0E0,0E0,0E0,0E0,0E0,0E0,0E0,0E0,0E0,0E0],"parents":[2147483647,0,0,1,1,2,2,3,3,4,4,5,5,6,6,7,7,8,8,9,9,10,10,11,11,13,13,14,14],"right_children":[2,4,6,8,10,12,14,16,18,20,22,24,-1,26,28,-1,-1,-1,-1,-1,-1,-1,-1,-1,-1,-1,-1,-1,-1],"split_conditions":[3.7890822E-1,2.950303E-1,3.998055E-1,2.8203252E-1,3.0917525E-1,4.0303674E-1,-1.40874E-1,8.71687E-2,2.644817E-1,-4.8681226E-1,3.259711E-1,3.5878852E-1,-1.4983134E-1,2.6792443E-1,-1.0965449E-2,5.3836267E-2,-1.3196152E-1,-1.3448228E-1,5.4160506E-2,1.5735596E-1,3.3973143E-1,-9.1560766E-2,1.1664959E-1,-3.315672E-2,6.3478686E-2,-0E0,-1.5953945E-1,-4.1004783E-3,-1.4432487E-1],"split_indices":[3,1,3,1,3,1,5,3,2,5,2,2,0,2,5,0,0,0,0,0,0,0,0,0,0,0,0,0,0],"split_type":[0,0,0,0,0,0,0,0,0,0,0,0,0,0,0,0,0,0,0,0,0,0,0,0,0,0,0,0,0],"sum_hessian":[1.672E3,8.22E2,8.5E2,2.36E2,5.86E2,8.5E1,7.65E2,1E2,1.36E2,4.13E2,1.73E2,7.5E1,1E1,3.29E2,4.36E2,4E1,6E1,2.5E1,1.11E2,2.81E2,1.32E2,3.4E1,1.39E2,6.5E1,1E1,6E0,3.23E2,1.34E2,3.02E2],"tree_param":{"num_deleted":"0","num_feature":"8","num_nodes":"29","size_leaf_vector":"1"}},{"base_weights":[1.343965E-3,1.1773847E0,-9.7173494E-1,1.6661331E-1,1.9192407E0,-1.0565128E0,5.8125925E-1,-2.853467E-1,8.546257E-1,1.0613672E0,2.2478096E0,-9.610937E-1,-1.637607E-1,1.1753544E0,1.480468E-1,-4.1447666E-2,1.9032347E-1,1.424369E-1,-5.824287E-2,3.9069623E-1,7.461127E-2,2.740252E-1,1.17629565E-1,-1.1204388E-1,-4.543068E-2,5.9209585E-2,1.4361785E-1,-1.7568436E-2,6.296396E-2],"categories":[],"categories_nodes":[],"categories_segments":[],"categories_sizes":[],"default_left":[0,0,0,0,0,0,0,0,0,0,0,0,0,0,0,0,0,0,0,0,0,0,0,0,0,0,0,0,0],"id":7,"left_children":[1,3,5,7,9,11,13,15,17,19,21,23,-1,25,27,-1,-1,-1,-1,-1,-1,-1,-1,-1,-1,-1,-1,-1,-1],"loss_changes":[1.9157133E3,5.678556E2,1.2126184E2,1.00428E2,1.2046069E2,4.6350098E1,1.2047386E1,5.5749218E1,1.0571405E2,1.06961334E2,1.6259753E2,5.9818237E1,0E0,1.9893742E0,4.6773047E0,0E0,0E0,0E0,0E0,0E0,0E0,0E0,0E0,0E0,0E0,0E0,0E0,0E0,0E0],"parents":[2147483647,0,0,1,1,2,2,3,3,4,4,5,5,6,6,7,7,8,8,9,9,10,10,11,11,13,13,14,14],"right_children":[2,4,6,8,10,12,14,16,18,20,22,24,-1,26,28,-1,-1,-1,-1,-1,-1,-1,-1,-1,-1,-1,-1,-1,-1],"split_conditions":[3.6352548E-1,3.0765858E-1,3.491616E-1,2.9117554E-1,4.5209122E-1,3.9546967E-1,6.399046E-1,5.622413E-1,5.4014534E-1,4.0020472E-1,3.141215E-1,3.1039014E-1,-1.637607E-1,2.0175526E0,3.5878852E-1,-4.1447666E-2,1.9032347E-1,1.424369E-1,-5.824287E-2,3.9069623E-1,7.461127E-2,2.740252E-1,1.17629565E-1,-1.1204388E-1,-4.543068E-2,5.9209585E-2,1.4361785E-1,-1.7568436E-2,6.296396E-2],"split_indices":[3,1,2,1,4,1,6,6,6,6,3,2,0,0,2,0,0,0,0,0,0,0,0,0,0,0,0,0,0],"split_type":[0,0,0,0,0,0,0,0,0,0,0,0,0,0,0,0,0,0,0,0,0,0,0,0,0,0,0,0,0],"sum_hessian":[1.672E3,7.57E2,9.15E2,3.21E2,4.36E2,8.68E2,4.7E1,1.94E2,1.27E2,1.22E2,3.14E2,7.48E2,1.2E2,1.9E1,2.8E1,1.84E2,1E1,9.1E1,3.6E1,1.1E1,1.11E2,2.14E2,1E2,5.68E2,1.8E2,7E0,1.2E1,1.7E1,1.1E1],"tree_param":{"num_deleted":"0","num_feature":"8","num_nodes":"29","size_leaf_vector":"1"}},{"base_weights":[1.8294067E-3,9.6822274E-1,-9.644466E-1,8.375266E-2,1.6129215E0,-1.0023046E0,2.0470916E-1,-2.4665943E-1,7.228657E-1,1.3307308E0,2.3949E0,-8.346208E-1,-1.2674954E0,-7.7245295E-2,5.7192266E-2,1.3785352E-2,-1.2717384E-1,-6.87588E-2,1.9501425E-1,3.554853E-1,1.2430306E-1,3.0749553E-1,1.3529949E-1,-1.23825215E-1,-2.933502E-2,-7.769904E-2,-1.4163205E-1,1.1330866E-2,-2.9446283E-2],"categories":[],"categories_nodes":[],"categories_segments":[],"categories_sizes":[],"default_left":[0,0,0,0,0,0,0,0,0,0,0,0,0,0,0,0,0,0,0,0,0,0,0,0,0,0,0,0,0],"id":8,"left_children":[1,3,5,7,9,11,13,15,17,19,21,23,25,27,-1,-1,-1,-1,-1,-1,-1,-1,-1,-1,-1,-1,-1,-1,-1],"loss_changes":[1.563186E3,4.7696667E2,3.7332092E1,7.498034E1,1.03243286E2,3.4795654E1,2.8891578E0,9.252124E1,2.109202E2,6.493152E1,8.538306E1,1.0872049E2,2.1456055E1,7.137472E-1,0E0,0E0,0E0,0E0,0E0,0E0,0E0,0E0,0E0,0E0,0E0,0E0,0E0,0E0,0E0],"parents":[2147483647,0,0,1,1,2,2,3,3,4,4,5,5,6,6,7,7,8,8,9,9,10,10,11,11,12,12,13,13],"right_children":[2,4,6,8,10,12,14,16,18,20,22,24,26,28,-1,-1,-1,-1,-1,-1,-1,-1,-1,-1,-1,-1,-1,-1,-1],"split_conditions":[6.399046E-1,3.0702418E-1,3.506214E-1,-4.4272515E-1,3.5301653E-1,3.2948473E-1,3.5878852E-1,2.4504232E-1,2.644817E-1,4.0020472E-1,1.913962E0,5.0287145E-1,4.0586844E-1,3.8555387E-1,5.7192266E-2,1.3785352E-2,-1.2717384E-1,-6.87588E-2,1.9501425E-1,3.554853E-1,1.2430306E-1,3.0749553E-1,1.3529949E-1,-1.23825215E-1,-2.933502E-2,-7.769904E-2,-1.4163205E-1,1.1330866E-2,-2.9446283E-2],"split_indices":[6,1,2,5,2,1,2,3,2,6,0,3,3,3,0,0,0,0,0,0,0,0,0,0,0,0,0,0,0],"split_type":[0,0,0,0,0,0,0,0,0,0,0,0,0,0,0,0,0,0,0,0,0,0,0,0,0,0,0,0,0],"sum_hessian":[1.672E3,8.36E2,8.36E2,3.53E2,4.83E2,8.1E2,2.6E1,2.33E2,1.2E2,3.57E2,1.26E2,4.99E2,3.11E2,1.5E1,1.1E1,1.7E2,6.3E1,5.6E1,6.4E1,1.2E1,3.45E2,7.5E1,5.1E1,2.85E2,2.14E2,7.4E1,2.37E2,8E0,7E0],"tree_param":{"num_deleted":"0","num_feature":"8","num_nodes":"29","size_leaf_vector":"1"}},{"base_weights":[2.006338E-3,9.8572105E-1,-7.753917E-1,2.928299E-1,1.7801955E0,-1.6290817E-1,-9.3021274E-1,-2.727271E-1,7.8544885E-1,7.236626E-1,2.0375164E0,-5.3389364E-1,3.4167588E-1,-1.1750921E0,-7.3814416E-1,-3.6811944E-2,2.1912663E-1,1.0024054E-1,-1.4658679E-1,2.514264E-1,8.799944E-3,3.9172024E-1,1.8342918E-1,5.7048507E-2,-1.0159063E-1,1.3750726E-2,9.954099E-2,-5.808732E-2,-1.2511319E-1,1.0600003E-2,-1.0993922E-1],"categories":[],"categories_nodes":[],"categories_segments":[],"categories_sizes":[],"default_left":[0,0,0,0,0,0,0,0,0,0,0,0,0,0,0,0,0,0,0,0,0,0,0,0,0,0,0,0,0,0,0],"id":9,"left_children":[1,3,5,7,9,11,13,15,17,19,21,23,25,27,29,-1,-1,-1,-1,-1,-1,-1,-1,-1,-1,-1,-1,-1,-1,-1,-1],"loss_changes":[1.280192E3,4.0607928E2,8.840082E1,1.1059271E2,9.177197E1,3.5768375E1,3.4028442E1,4.4107853E1,1.0497188E2,7.805566E1,9.767114E1,5.9179806E1,1.0561062E1,1.3820099E1,1.2859787E2,0E0,0E0,0E0,0E0,0E0,0E0,0E0,0E0,0E0,0E0,0E0,0E0,0E0,0E0,0E0,0E0],"parents":[2147483647,0,0,1,1,2,2,3,3,4,4,5,5,6,6,7,7,8,8,9,9,10,10,11,11,12,12,13,13,14,14],"right_children":[2,4,6,8,10,12,14,16,18,20,22,24,26,28,30,-1,-1,-1,-1,-1,-1,-1,-1,-1,-1,-1,-1,-1,-1,-1,-1],"split_conditions":[3.5605443E-1,3.2225013E-1,6.6058856E-1,2.903831E-1,4.5209122E-1,3.3408177E-1,-1.40874E-1,5.660933E-1,5.694434E-1,4.5129848E-1,4.638952E-1,3.5523328E-1,3.6254507E-1,4.018577E-1,-1.0965449E-2,-3.6811944E-2,2.1912663E-1,1.0024054E-1,-1.4658679E-1,2.514264E-1,8.799944E-3,3.9172024E-1,1.8342918E-1,5.7048507E-2,-1.0159063E-1,1.3750726E-2,9.954099E-2,-5.808732E-2,-1.2511319E-1,1.0600003E-2,-1.0993922E-1],"split_indices":[3,1,6,1,4,2,5,6,6,6,4,4,2,3,5,0,0,0,0,0,0,0,0,0,0,0,0,0,0,0,0],"split_type":[0,0,0,0,0,0,0,0,0,0,0,0,0,0,0,0,0,0,0,0,0,0,0,0,0,0,0,0,0,0,0],"sum_hessian":[1.672E3,7.38E2,9.34E2,3.95E2,3.43E2,1.89E2,7.45E2,1.84E2,2.11E2,6.8E1,2.75E2,1.09E2,8E1,3.25E2,4.2E2,1.78E2,6E0,1.93E2,1.8E1,1.7E1,5.1E1,2.5E1,2.5E2,3.3E1,7.6E1,6.2E1,1.8E1,3.8E1,2.87E2,1.26E2,2.94E2],"tree_param":{"num_deleted":"0","num_feature":"8","num_nodes":"31","size_leaf_vector":"1"}},{"base_weights":[2.276409E-3,8.8850385E-1,-6.980705E-1,2.638649E-1,1.6046915E0,-1.4609765E-1,-8.375836E-1,-2.3147832E-1,7.22344E-1,6.552127E-1,1.8358847E0,-4.7745335E-1,3.1423464E-1,-6.8148243E-1,-1.0960703E0,-3.310255E-2,1.8072559E-1,9.5343955E-2,-1.15347914E-1,2.276806E-1,7.936864E-3,3.540548E-1,1.6515934E-1,5.1511444E-2,-9.05272E-2,1.27705205E-2,9.011078E-2,-1.14294164E-1,-2.1866145E-2,-6.7281924E-2,-1.2210166E-1],"categories":[],"categories_nodes":[],"categories_segments":[],"categories_sizes":[],"default_left":[0,0,0,0,0,0,0,0,0,0,0,0,0,0,0,0,0,0,0,0,0,0,0,0,0,0,0,0,0,0,0],"id":10,"left_children":[1,3,5,7,9,11,13,15,17,19,21,23,25,27,29,-1,-1,-1,-1,-1,-1,-1,-1,-1,-1,-1,-1,-1,-1,-1,-1],"loss_changes":[1.0390146E3,3.299878E2,7.178128E1,9.014968E1,7.4060486E1,2.9147762E1,2.9176453E1,3.921411E1,9.037962E1,6.401482E1,8.0339966E1,4.764026E1,8.539573E0,9.9566086E1,1.3743622E1,0E0,0E0,0E0,0E0,0E0,0E0,0E0,0E0,0E0,0E0,0E0,0E0,0E0,0E0,0E0,0E0],"parents":[2147483647,0,0,1,1,2,2,3,3,4,4,5,5,6,6,7,7,8,8,9,9,10,10,11,11,12,12,13,13,14,14],"right_children":[2,4,6,8,10,12,14,16,18,20,22,24,26,28,30,-1,-1,-1,-1,-1,-1,-1,-1,-1,-1,-1,-1,-1,-1,-1,-1],"split_conditions":[3.5605443E-1,3.2225013E-1,6.6058856E-1,2.9117554E-1,4.5209122E-1,3.3431983E-1,3.2948473E-1,5.622413E-1,5.622413E-1,4.5129848E-1,4.638952E-1,3.5523328E-1,3.6254507E-1,4.873851E-1,-2.1269354E-1,-3.310255E-2,1.8072559E-1,9.5343955E-2,-1.15347914E-1,2.276806E-1,7.936864E-3,3.540548E-1,1.6515934E-1,5.1511444E-2,-9.05272E-2,1.27705205E-2,9.011078E-2,-1.14294164E-1,-2.1866145E-2,-6.7281924E-2,-1.2210166E-1],"split_indices":[3,1,6,1,4,2,1,6,6,6,4,4,2,3,5,0,0,0,0,0,0,0,0,0,0,0,0,0,0,0,0],"split_type":[0,0,0,0,0,0,0,0,0,0,0,0,0,0,0,0,0,0,0,0,0,0,0,0,0,0,0,0,0,0,0],"sum_hessian":[1.672E3,7.38E2,9.34E2,3.95E2,3.43E2,1.89E2,7.45E2,1.9E2,2.05E2,6.8E1,2.75E2,1.1E2,7.9E1,4.67E2,2.78E2,1.82E2,8E0,1.83E2,2.2E1,1.7E1,5.1E1,2.5E1,2.5E2,3.3E1,7.7E1,6.1E1,1.8E1,2.33E2,2.34E2,6.5E1,2.13E2],"tree_param":{"num_deleted":"0","num_feature":"8","num_nodes":"31","size_leaf_vector":"1"}},{"base_weights":[2.4258022E-3,8.008882E-1,-6.28554E-1,2.3777536E-1,1.4465039E0,-9.281697E-2,-7.4650013E-1,-2.0750527E-1,6.499638E-1,5.93251E-1,1.6542138E0,-2.3855394E-1,6.8418086E-1,-1.0055848E0,-5.489156E-1,1.0924742E-2,-8.247374E-2,8.586137E-2,-1.0431464E-1,2.061774E-1,7.158432E-3,1.9465715E-1,7.8125745E-2,6.758751E-2,-3.3522155E-2,4.0903393E-2,1.1010273E-1,2.2588244E-2,-1.0293956E-1,1.8598516E-2,-8.748651E-2],"categories":[],"categories_nodes":[],"categories_segments":[],"categories_sizes":[],"default_left":[0,0,0,0,0,0,0,0,0,0,0,0,0,0,0,0,0,0,0,0,0,0,0,0,0,0,0,0,0,0,0],"id":11,"left_children":[1,3,5,7,9,11,13,15,17,19,21,23,25,27,29,-1,-1,-1,-1,-1,-1,-1,-1,-1,-1,-1,-1,-1,-1,-1,-1],"loss_changes":[8.434009E2,2.681544E2,5.8927643E1,7.286078E1,5.976062E1,1.9368996E1,3.8504974E1,3.7504044E1,7.365024E1,5.2498566E1,6.8645874E1,1.2921473E1,2.4953747E0,9.989197E0,1.0491081E2,0E0,0E0,0E0,0E0,0E0,0E0,0E0,0E0,0E0,0E0,0E0,0E0,0E0,0E0,0E0,0E0],"parents":[2147483647,0,0,1,1,2,2,3,3,4,4,5,5,6,6,7,7,8,8,9,9,10,10,11,11,12,12,13,13,14,14],"right_children":[2,4,6,8,10,12,14,16,18,20,22,24,26,28,30,-1,-1,-1,-1,-1,-1,-1,-1,-1,-1,-1,-1,-1,-1,-1,-1],"split_conditions":[3.5605443E-1,3.2225013E-1,3.998055E-1,2.9117554E-1,4.5209122E-1,3.5878852E-1,-1.40874E-1,1.3841434E0,5.622413E-1,4.5129848E-1,5.023554E-1,2.8562853E-1,5.2572864E-1,2.6792443E-1,-1.0965449E-2,1.0924742E-2,-8.247374E-2,8.586137E-2,-1.0431464E-1,2.061774E-1,7.158432E-3,1.9465715E-1,7.8125745E-2,6.758751E-2,-3.3522155E-2,4.0903393E-2,1.1010273E-1,2.2588244E-2,-1.0293956E-1,1.8598516E-2,-8.748651E-2],"split_indices":[3,1,3,1,4,2,5,0,6,6,4,1,4,2,5,0,0,0,0,0,0,0,0,0,0,0,0,0,0,0,0],"split_type":[0,0,0,0,0,0,0,0,0,0,0,0,0,0,0,0,0,0,0,0,0,0,0,0,0,0,0,0,0,0,0],"sum_hessian":[1.672E3,7.38E2,9.34E2,3.95E2,3.43E2,1.69E2,7.65E2,1.9E2,2.05E2,6.8E1,2.75E2,1.43E2,2.6E1,3.29E2,4.36E2,1.26E2,6.4E1,1.83E2,2.2E1,1.7E1,5.1E1,2.05E2,7E1,1.3E1,1.3E2,1.7E1,9E0,6E0,3.23E2,1.34E2,3.02E2],"tree_param":{"num_deleted":"0","num_feature":"8","num_nodes":"31","size_leaf_vector":"1"}},{"base_weights":[2.47128E-3,7.2137594E-1,-5.6562823E-1,2.7012426E-1,1.3841873E0,-1.0671014E-1,-6.816186E-1,-3.418482E-1,5.329793E-1,2.6199308E-1,1.5661725E0,-3.929076E-1,2.8203592E-1,-5.384556E-1,-9.189614E-1,4.9102623E-2,-7.744661E-2,-1.2591372E-1,6.8866335E-2,-3.0574514E-2,1.7624623E-1,1.8845233E-1,7.0423186E-2,-7.6537624E-2,4.5923926E-2,7.948449E-3,6.2039055E-2,-9.118688E-2,-9.433736E-3,-5.3673025E-2,-1.0320842E-1],"categories":[],"categories_nodes":[],"categories_segments":[],"categories_sizes":[],"default_left":[0,0,0,0,0,0,0,0,0,0,0,0,0,0,0,0,0,0,0,0,0,0,0,0,0,0,0,0,0,0,0],"id":12,"left_children":[1,3,5,7,9,11,13,15,17,19,21,23,25,27,29,-1,-1,-1,-1,-1,-1,-1,-1,-1,-1,-1,-1,-1,-1,-1,-1],"loss_changes":[6.836925E2,2.204917E2,4.961856E1,7.11406E1,6.0469482E1,2.1260946E1,2.470752E1,4.833071E1,8.702227E1,3.731511E1,6.893463E1,3.5295883E1,5.431971E0,7.74263E1,1.135289E1,0E0,0E0,0E0,0E0,0E0,0E0,0E0,0E0,0E0,0E0,0E0,0E0,0E0,0E0,0E0,0E0],"parents":[2147483647,0,0,1,1,2,2,3,3,4,4,5,5,6,6,7,7,8,8,9,9,10,10,11,11,12,12,13,13,14,14],"right_children":[2,4,6,8,10,12,14,16,18,20,22,24,26,28,30,-1,-1,-1,-1,-1,-1,-1,-1,-1,-1,-1,-1,-1,-1,-1,-1],"split_conditions":[3.5605443E-1,3.3622745E-1,6.6058856E-1,2.869763E-1,4.5209122E-1,3.3408177E-1,3.2948473E-1,8.71687E-2,2.644817E-1,7.163282E-1,5.023554E-1,-2.284624E-1,3.545408E-1,5.0287145E-1,-2.1269354E-1,4.9102623E-2,-7.744661E-2,-1.2591372E-1,6.8866335E-2,-3.0574514E-2,1.7624623E-1,1.8845233E-1,7.0423186E-2,-7.6537624E-2,4.5923926E-2,7.948449E-3,6.2039055E-2,-9.118688E-2,-9.433736E-3,-5.3673025E-2,-1.0320842E-1],"split_indices":[3,1,6,1,4,2,1,3,2,7,4,5,2,3,5,0,0,0,0,0,0,0,0,0,0,0,0,0,0,0,0],"split_type":[0,0,0,0,0,0,0,0,0,0,0,0,0,0,0,0,0,0,0,0,0,0,0,0,0,0,0,0,0,0,0],"sum_hessian":[1.672E3,7.38E2,9.34E2,4.4E2,2.98E2,1.89E2,7.45E2,1.32E2,3.08E2,4.2E1,2.56E2,1.09E2,8E1,4.67E2,2.78E2,4.5E1,8.7E1,2.4E1,2.84E2,3.1E1,1.1E1,1.86E2,7E1,7.6E1,3.3E1,5.1E1,2.9E1,2.53E2,2.14E2,6.5E1,2.13E2],"tree_param":{"num_deleted":"0","num_feature":"8","num_nodes":"31","size_leaf_vector":"1"}},{"base_weights":[2.278592E-3,6.4968383E-1,-5.0930935E-1,2.428956E-1,1.2471551E0,-5.701723E-1,2.0519263E-1,-3.0780125E-1,4.7946447E-1,2.389488E-1,1.4106015E0,-3.8634256E-1,-7.335401E-1,2.389648E-2,7.2347635E-1,4.4299114E-2,-6.978995E-2,-1.1382603E-1,6.200387E-2,1.8394825E-1,-2.98773E-2,2.903155E-1,1.243973E-1,4.6301518E-2,-7.1359836E-2,-8.434059E-2,6.2528322E-3,-3.8541216E-2,1.3473664E-2,3.3270914E-2,9.6833356E-2],"categories":[],"categories_nodes":[],"categories_segments":[],"categories_sizes":[],"default_left":[0,0,0,0,0,0,0,0,0,0,0,0,0,0,0,0,0,0,0,0,0,0,0,0,0,0,0,0,0,0,0],"id":13,"left_children":[1,3,5,7,9,11,13,15,17,19,21,23,25,27,29,-1,-1,-1,-1,-1,-1,-1,-1,-1,-1,-1,-1,-1,-1,-1,-1],"loss_changes":[5.5445044E2,1.791578E2,4.0813522E1,5.761723E1,4.87695E1,2.5492065E1,6.861225E0,3.9288063E1,7.092375E1,3.7711258E1,5.9890198E1,1.1376199E2,3.99254E1,2.5674603E0,1.3656836E0,0E0,0E0,0E0,0E0,0E0,0E0,0E0,0E0,0E0,0E0,0E0,0E0,0E0,0E0,0E0,0E0],"parents":[2147483647,0,0,1,1,2,2,3,3,4,4,5,5,6,6,7,7,8,8,9,9,10,10,11,11,12,12,13,13,14,14],"right_children":[2,4,6,8,10,12,14,16,18,20,22,24,26,28,30,-1,-1,-1,-1,-1,-1,-1,-1,-1,-1,-1,-1,-1,-1,-1,-1],"split_conditions":[3.5605443E-1,3.3622745E-1,1.9843986E0,2.869763E-1,4.5209122E-1,3.7744996E-1,3.64758E-1,8.71687E-2,2.644817E-1,1.7844859E-1,1.7572218E0,-1.0965449E-2,3.3278158E-1,2.0677688E0,6.3624626E-1,4.4299114E-2,-6.978995E-2,-1.1382603E-1,6.200387E-2,1.8394825E-1,-2.98773E-2,2.903155E-1,1.243973E-1,4.6301518E-2,-7.1359836E-2,-8.434059E-2,6.2528322E-3,-3.8541216E-2,1.3473664E-2,3.3270914E-2,9.6833356E-2],"split_indices":[3,1,0,1,4,4,1,3,2,3,0,5,2,0,6,0,0,0,0,0,0,0,0,0,0,0,0,0,0,0,0],"split_type":[0,0,0,0,0,0,0,0,0,0,0,0,0,0,0,0,0,0,0,0,0,0,0,0,0,0,0,0,0,0,0],"sum_hessian":[1.672E3,7.38E2,9.34E2,4.4E2,2.98E2,8.61E2,7.3E1,1.32E2,3.08E2,4.2E1,2.56E2,4.07E2,4.54E2,5.5E1,1.8E1,4.5E1,8.7E1,2.4E1,2.84E2,1E1,3.2E1,2.4E1,2.32E2,1.13E2,2.94E2,3.99E2,5.5E1,1.1E1,4.4E1,8E0,1E1],"tree_param":{"num_deleted":"0","num_feature":"8","num_nodes":"31","size_leaf_vector":"1"}},{"base_weights":[2.3635305E-3,5.8539397E-1,-4.583443E-1,2.1840794E-1,1.1243753E0,-7.931737E-2,-5.541309E-1,-5.331398E-1,3.7167135E-1,2.859403E0,1.0351629E0,-2.2982481E-1,4.0853608E-1,-7.5306445E-1,-3.9853355E-1,-2.6350722E-2,-1.5874366E-1,1.03489116E-1,-2.7441652E-3,1.8327738E-1,3.387778E-1,6.2176257E-2,1.4611249E-1,-4.2087022E-2,4.0893856E-2,-5.8889235E-3,5.6443512E-2,-1.0458603E-1,-6.294926E-2,2.2108272E-2,-6.6427164E-2],"categories":[],"categories_nodes":[],"categories_segments":[],"categories_sizes":[],"default_left":[0,0,0,0,0,0,0,0,0,0,0,0,0,0,0,0,0,0,0,0,0,0,0,0,0,0,0,0,0,0,0],"id":14,"left_children":[1,3,5,7,9,11,13,15,17,19,21,23,25,27,29,-1,-1,-1,-1,-1,-1,-1,-1,-1,-1,-1,-1,-1,-1,-1,-1],"loss_changes":[4.4966003E2,1.4579332E2,3.3838516E1,5.09785E1,4.293164E1,1.4026879E1,2.2676071E1,2.0717064E1,9.727391E1,8.631439E-1,4.924579E1,1.7990093E1,3.362996E0,1.0969208E1,6.951119E1,0E0,0E0,0E0,0E0,0E0,0E0,0E0,0E0,0E0,0E0,0E0,0E0,0E0,0E0,0E0,0E0],"parents":[2147483647,0,0,1,1,2,2,3,3,4,4,5,5,6,6,7,7,8,8,9,9,10,10,11,11,12,12,13,13,14,14],"right_children":[2,4,6,8,10,12,14,16,18,20,22,24,26,28,30,-1,-1,-1,-1,-1,-1,-1,-1,-1,-1,-1,-1,-1,-1,-1,-1],"split_conditions":[3.5605443E-1,3.3622745E-1,6.6058856E-1,9.441316E-1,-5.3575814E-1,3.491616E-1,-1.40874E-1,3.163908E-1,6.6638464E-1,-5.4121476E-1,-4.7206363E-1,-2.284624E-1,-4.253178E-1,1.3325994E0,-1.0965449E-2,-2.6350722E-2,-1.5874366E-1,1.03489116E-1,-2.7441652E-3,1.8327738E-1,3.387778E-1,6.2176257E-2,1.4611249E-1,-4.2087022E-2,4.0893856E-2,-5.8889235E-3,5.6443512E-2,-1.0458603E-1,-6.294926E-2,2.2108272E-2,-6.6427164E-2],"split_indices":[3,1,6,0,5,2,5,4,7,5,5,5,5,0,5,0,0,0,0,0,0,0,0,0,0,0,0,0,0,0,0],"split_type":[0,0,0,0,0,0,0,0,0,0,0,0,0,0,0,0,0,0,0,0,0,0,0,0,0,0,0,0,0,0,0],"sum_hessian":[1.672E3,7.38E2,9.34E2,4.4E2,2.98E2,1.89E2,7.45E2,7.4E1,3.66E2,1.3E1,2.85E2,1.45E2,4.4E1,3.25E2,4.2E2,6E1,1.4E1,1.37E2,2.29E2,6E0,7E0,1.46E2,1.39E2,1.12E2,3.3E1,1.1E1,3.3E1,9.4E1,2.31E2,1.26E2,2.94E2],"tree_param":{"num_deleted":"0","num_feature":"8","num_nodes":"31","size_leaf_vector":"1"}},{"base_weights":[2.410218E-3,5.2774227E-1,-4.126944E-1,-1.6338755E-1,7.674109E-1,-4.6490633E-1,1.9973E-1,-3.893697E-2,-1.4290031E0,3.9241114E-1,1.2853782E0,-2.9964173E-1,-6.118581E-1,1.876724E-3,5.032307E-1,-1.7588807E-2,1.5414213E-1,-6.893485E-2,-1.6714136E-1,-6.443269E-3,7.486477E-2,1.8287145E-1,3.5317898E-2,4.254988E-2,-5.7918876E-2,-7.034798E-2,7.969299E-3,-6.471173E-2,1.7993247E-2,7.4828774E-2,-2.7206447E-3],"categories":[],"categories_nodes":[],"categories_segments":[],"categories_sizes":[],"default_left":[0,0,0,0,0,0,0,0,0,0,0,0,0,0,0,0,0,0,0,0,0,0,0,0,0,0,0,0,0,0,0],"id":15,"left_children":[1,3,5,7,9,11,13,15,17,19,21,23,25,27,29,-1,-1,-1,-1,-1,-1,-1,-1,-1,-1,-1,-1,-1,-1,-1,-1],"loss_changes":[3.6505667E2,1.2259532E2,3.00168E1,2.9881325E1,1.05964294E2,2.0660004E1,4.392142E0,3.8010128E1,1.6598358E0,5.2194878E1,1.1563043E2,8.296785E1,2.8947708E1,5.385346E0,3.8620987E0,0E0,0E0,0E0,0E0,0E0,0E0,0E0,0E0,0E0,0E0,0E0,0E0,0E0,0E0,0E0,0E0],"parents":[2147483647,0,0,1,1,2,2,3,3,4,4,5,5,6,6,7,7,8,8,9,9,10,10,11,11,12,12,13,13,14,14],"right_children":[2,4,6,8,10,12,14,16,18,20,22,24,26,28,30,-1,-1,-1,-1,-1,-1,-1,-1,-1,-1,-1,-1,-1,-1,-1,-1],"split_conditions":[3.5605443E-1,2.9117554E-1,1.9843986E0,2.78556E-1,-4.8681226E-1,3.7744996E-1,3.6045128E-1,2.8613836E-1,2.9019716E-1,7.163282E-1,3.0917525E-1,-1.0965449E-2,3.3293685E-1,2.0677688E0,2.2453907E0,-1.7588807E-2,1.5414213E-1,-6.893485E-2,-1.6714136E-1,-6.443269E-3,7.486477E-2,1.8287145E-1,3.5317898E-2,4.254988E-2,-5.7918876E-2,-7.034798E-2,7.969299E-3,-6.471173E-2,1.7993247E-2,7.4828774E-2,-2.7206447E-3],"split_indices":[3,1,0,2,5,4,1,3,3,7,3,5,2,0,0,0,0,0,0,0,0,0,0,0,0,0,0,0,0,0,0],"split_type":[0,0,0,0,0,0,0,0,0,0,0,0,0,0,0,0,0,0,0,0,0,0,0,0,0,0,0,0,0,0,0],"sum_hessian":[1.672E3,7.38E2,9.34E2,1.9E2,5.48E2,8.61E2,7.3E1,1.74E2,1.6E1,3.19E2,2.29E2,4.07E2,4.54E2,4.5E1,2.8E1,1.61E2,1.3E1,5E0,1.1E1,1.4E2,1.79E2,1.44E2,8.5E1,1.13E2,2.94E2,4.01E2,5.3E1,9E0,3.6E1,1.9E1,9E0],"tree_param":{"num_deleted":"0","num_feature":"8","num_nodes":"31","size_leaf_vector":"1"}},{"base_weights":[2.24378E-3,4.7520772E-1,-3.7147024E-1,1.2515603E-1,8.765021E-1,-4.1849428E-1,1.79965E-1,-3.5837078E-1,3.345353E-1,6.125512E-1,1.2212442E0,-3.6031792E-1,-8.079551E-1,4.5605507E-4,4.550494E-1,4.543497E-2,-8.533944E-2,-1.1851656E-2,1.7578101E-1,1.01733066E-1,-2.0477362E-2,1.5311937E-1,5.6172974E-2,-4.92483E-2,-7.933993E-3,-7.040973E-2,-9.939384E-2,-5.888767E-2,1.6242556E-2,6.7720056E-2,-2.4757888E-3],"categories":[],"categories_nodes":[],"categories_segments":[],"categories_sizes":[],"default_left":[0,0,0,0,0,0,0,0,0,0,0,0,0,0,0,0,0,0,0,0,0,0,0,0,0,0,0,0,0,0,0],"id":16,"left_children":[1,3,5,7,9,11,13,15,17,19,21,23,25,27,29,-1,-1,-1,-1,-1,-1,-1,-1,-1,-1,-1,-1,-1,-1,-1,-1],"loss_changes":[2.958951E2,1.0360025E2,2.434439E1,4.020874E1,3.037082E1,1.9122742E1,3.6083703E0,4.8705544E1,1.7898666E2,6.546433E1,2.9184189E1,2.782962E1,1.2744217E0,4.443885E0,3.173112E0,0E0,0E0,0E0,0E0,0E0,0E0,0E0,0E0,0E0,0E0,0E0,0E0,0E0,0E0,0E0,0E0],"parents":[2147483647,0,0,1,1,2,2,3,3,4,4,5,5,6,6,7,7,8,8,9,9,10,10,11,11,12,12,13,13,14,14],"right_children":[2,4,6,8,10,12,14,16,18,20,22,24,26,28,30,-1,-1,-1,-1,-1,-1,-1,-1,-1,-1,-1,-1,-1,-1,-1,-1],"split_conditions":[3.5605443E-1,3.2225013E-1,1.9843986E0,2.6665038E-1,3.4231544E-1,4.0303674E-1,3.6045128E-1,1.010392E-1,-4.7487846E-1,3.5514638E-1,3.6655492E-1,7.138867E-1,1.4566091E0,2.0677688E0,2.2453907E0,4.543497E-2,-8.533944E-2,-1.1851656E-2,1.7578101E-1,1.01733066E-1,-2.0477362E-2,1.5311937E-1,5.6172974E-2,-4.92483E-2,-7.933993E-3,-7.040973E-2,-9.939384E-2,-5.888767E-2,1.6242556E-2,6.7720056E-2,-2.4757888E-3],"split_indices":[3,1,0,2,2,1,1,3,5,1,2,6,0,0,0,0,0,0,0,0,0,0,0,0,0,0,0,0,0,0,0],"split_type":[0,0,0,0,0,0,0,0,0,0,0,0,0,0,0,0,0,0,0,0,0,0,0,0,0,0,0,0,0,0,0],"sum_hessian":[1.672E3,7.38E2,9.34E2,3.95E2,3.43E2,8.61E2,7.3E1,1.19E2,2.76E2,1.96E2,1.47E2,7.51E2,1.1E2,4.5E1,2.8E1,4.5E1,7.4E1,2.1E2,6.6E1,1.31E2,6.5E1,9.9E1,4.8E1,5.1E2,2.41E2,7.4E1,3.6E1,9E0,3.6E1,1.9E1,9E0],"tree_param":{"num_deleted":"0","num_feature":"8","num_nodes":"31","size_leaf_vector":"1"}},{"base_weights":[2.1270902E-3,3.8110018E-1,-3.7672904E-1,-1.6127343E-1,5.495685E-1,-2.665662E-1,-5.618709E-1,-4.642229E-2,-1.3080308E0,-1.533149E0,5.920338E-1,-6.6201997E-1,-1.8431785E-2,-7.241003E-1,-2.4487172E-1,-1.667027E-2,8.789038E-2,-6.220265E-2,-1.5163383E-1,-5.6019075E-2,-2.0587242E-1,8.119549E-2,1.0377908E-2,4.7353547E-2,-6.935923E-2,-4.7281425E-2,1.0226112E-1,-9.006913E-2,-5.8542144E-2,-3.6652435E-2,4.858048E-3],"categories":[],"categories_nodes":[],"categories_segments":[],"categories_sizes":[],"default_left":[0,0,0,0,0,0,0,0,0,0,0,0,0,0,0,0,0,0,0,0,0,0,0,0,0,0,0,0,0,0,0],"id":17,"left_children":[1,3,5,7,9,11,13,15,17,19,21,23,25,27,29,-1,-1,-1,-1,-1,-1,-1,-1,-1,-1,-1,-1,-1,-1,-1,-1],"loss_changes":[2.403471E2,7.6606476E1,1.683863E1,2.6013407E1,5.732881E1,5.1631992E1,1.5719467E1,2.0331638E1,1.4151554E0,5.232542E0,6.714984E1,7.628418E0,1.5416379E2,4.3444366E0,3.8694177E0,0E0,0E0,0E0,0E0,0E0,0E0,0E0,0E0,0E0,0E0,0E0,0E0,0E0,0E0,0E0,0E0],"parents":[2147483647,0,0,1,1,2,2,3,3,4,4,5,5,6,6,7,7,8,8,9,9,10,10,11,11,12,12,13,13,14,14],"right_children":[2,4,6,8,10,12,14,16,18,20,22,24,26,28,30,-1,-1,-1,-1,-1,-1,-1,-1,-1,-1,-1,-1,-1,-1,-1,-1],"split_conditions":[3.8211015E-1,2.9117554E-1,3.2948473E-1,2.78556E-1,3.1695485E-1,-1.7233068E-1,4.4541112E-1,2.8613836E-1,2.9019716E-1,3.4977287E-1,3.0556917E-1,3.5768652E-1,2.4561217E-1,6.414787E-1,3.3967394E-1,-1.667027E-2,8.789038E-2,-6.220265E-2,-1.5163383E-1,-5.6019075E-2,-2.0587242E-1,8.119549E-2,1.0377908E-2,4.7353547E-2,-6.935923E-2,-4.7281425E-2,1.0226112E-1,-9.006913E-2,-5.8542144E-2,-3.6652435E-2,4.858048E-3],"split_indices":[3,1,1,2,4,5,4,3,3,6,3,4,2,3,2,0,0,0,0,0,0,0,0,0,0,0,0,0,0,0,0],"split_type":[0,0,0,0,0,0,0,0,0,0,0,0,0,0,0,0,0,0,0,0,0,0,0,0,0,0,0,0,0,0,0],"sum_hessian":[1.672E3,8.36E2,8.36E2,1.98E2,6.38E2,5.26E2,3.1E2,1.81E2,1.7E1,1.2E1,6.26E2,2.02E2,3.24E2,2.04E2,1.06E2,1.61E2,2E1,5E0,1.2E1,5E0,7E0,4.31E2,1.95E2,5E0,1.97E2,2.26E2,9.8E1,8.7E1,1.17E2,7.5E1,3.1E1],"tree_param":{"num_deleted":"0","num_feature":"8","num_nodes":"31","size_leaf_vector":"1"}},{"base_weights":[1.6093552E-3,3.8652483E-1,-3.0251274E-1,2.216036E-1,1.0429224E0,-2.1762232E-1,-5.416178E-1,3.179903E-2,6.256218E-1,-2.5657275E-1,1.1707003E0,-3.2199916E-1,8.855136E-1,3.8500022E-2,-5.710327E-1,4.6930186E-2,-3.7816435E-2,-6.9457226E-2,1.3079177E-1,-1.08899765E-1,4.9137063E-2,1.5553315E-1,4.618511E-2,1.24904536E-1,-3.6492582E-2,1.7185244E-1,-7.3857896E-2,-6.483223E-2,-3.2517046E-2],"categories":[],"categories_nodes":[],"categories_segments":[],"categories_sizes":[],"default_left":[0,0,0,0,0,0,0,0,0,0,0,0,0,0,0,0,0,0,0,0,0,0,0,0,0,0,0,0,0],"id":18,"left_children":[1,3,5,7,9,11,13,15,17,19,21,23,25,-1,27,-1,-1,-1,-1,-1,-1,-1,-1,-1,-1,-1,-1,-1,-1],"loss_changes":[1.9596887E2,7.964206E1,1.8784584E1,4.5311584E1,2.496669E1,7.990693E1,6.889E0,7.264808E1,1.7121399E2,9.3113575E0,3.5887085E1,4.305674E1,8.254044E1,0E0,4.19545E0,0E0,0E0,0E0,0E0,0E0,0E0,0E0,0E0,0E0,0E0,0E0,0E0,0E0,0E0],"parents":[2147483647,0,0,1,1,2,2,3,3,4,4,5,5,6,6,7,7,8,8,9,9,10,10,11,11,12,12,14,14],"right_children":[2,4,6,8,10,12,14,16,18,20,22,24,26,-1,28,-1,-1,-1,-1,-1,-1,-1,-1,-1,-1,-1,-1,-1,-1],"split_conditions":[3.5605443E-1,3.4231544E-1,7.451403E-1,-4.7206363E-1,2.2495028E-1,7.2797954E-1,2.7618936E-1,1.9656569E-1,2.6665038E-1,7.261212E-1,3.6655492E-1,3.9283615E-1,3.8294807E-1,3.8500022E-2,3.2837865E-1,4.6930186E-2,-3.7816435E-2,-6.9457226E-2,1.3079177E-1,-1.08899765E-1,4.9137063E-2,1.5553315E-1,4.618511E-2,1.24904536E-1,-3.6492582E-2,1.7185244E-1,-7.3857896E-2,-6.483223E-2,-3.2517046E-2],"split_indices":[3,2,6,5,3,6,1,3,2,7,2,7,4,0,2,0,0,0,0,0,0,0,0,0,0,0,0,0,0],"split_type":[0,0,0,0,0,0,0,0,0,0,0,0,0,0,0,0,0,0,0,0,0,0,0,0,0,0,0,0,0],"sum_hessian":[1.672E3,7.38E2,9.34E2,5.91E2,1.47E2,6.91E2,2.43E2,4.03E2,1.88E2,1.3E1,1.34E2,6.32E2,5.9E1,7E0,2.36E2,1.95E2,2.08E2,6.4E1,1.24E2,6E0,7E0,8.6E1,4.8E1,1.6E1,6.16E2,3.9E1,2E1,1.78E2,5.8E1],"tree_param":{"num_deleted":"0","num_feature":"8","num_nodes":"29","size_leaf_vector":"1"}},{"base_weights":[1.6516264E-3,3.1366557E-1,-3.102448E-1,-2.1463385E-2,5.6317073E-1,7.574994E-2,-3.5240018E-1,-2.3924977E-1,4.0626076E-1,2.6063448E-1,5.094794E-1,7.055197E-1,-4.4396743E-1,-7.1982867E-1,-2.6594886E-1,1.0628821E-3,-9.824001E-2,8.311642E-3,2.862927E-1,-3.126371E-3,6.775066E-2,1.1353481E-1,-2.2573755E-3,-8.127189E-2,-2.541162E-2,-2.5098056E-2,-7.6009735E-2,6.393444E-2,-3.3213135E-2],"categories":[],"categories_nodes":[],"categories_segments":[],"categories_sizes":[],"default_left":[0,0,0,0,0,0,0,0,0,0,0,0,0,0,0,0,0,0,0,0,0,0,0,0,0,0,0,0,0],"id":19,"left_children":[1,3,5,7,9,11,13,15,17,-1,19,21,23,25,27,-1,-1,-1,-1,-1,-1,-1,-1,-1,-1,-1,-1,-1,-1],"loss_changes":[1.6290738E2,7.005318E1,1.3673813E1,3.342909E1,5.1016953E1,2.7505472E1,2.369233E1,4.430359E1,9.552423E1,0E0,4.269893E1,1.2029203E1,2.907155E0,2.4079437E0,3.6909233E1,0E0,0E0,0E0,0E0,0E0,0E0,0E0,0E0,0E0,0E0,0E0,0E0,0E0,0E0],"parents":[2147483647,0,0,1,1,2,2,3,3,4,4,5,5,6,6,7,7,8,8,10,10,11,11,12,12,13,13,14,14],"right_children":[2,4,6,8,10,12,14,16,18,-1,20,22,24,26,28,-1,-1,-1,-1,-1,-1,-1,-1,-1,-1,-1,-1,-1,-1],"split_conditions":[6.399046E-1,3.0765858E-1,2.2868584E-1,-4.4272515E-1,4.0020472E-1,2.712253E-1,2.3829365E-1,2.5144577E-1,1.4744785E0,2.6063448E-1,4.5209122E-1,3.9283615E-1,2.759189E-1,2.3967631E-1,2.7425453E-1,1.0628821E-3,-9.824001E-2,8.311642E-3,2.862927E-1,-3.126371E-3,6.775066E-2,1.1353481E-1,-2.2573755E-3,-8.127189E-2,-2.541162E-2,-2.5098056E-2,-7.6009735E-2,6.393444E-2,-3.3213135E-2],"split_indices":[6,1,4,5,6,1,2,3,0,0,4,7,7,1,2,0,0,0,0,0,0,0,0,0,0,0,0,0,0],"split_type":[0,0,0,0,0,0,0,0,0,0,0,0,0,0,0,0,0,0,0,0,0,0,0,0,0,0,0,0,0],"sum_hessian":[1.672E3,8.36E2,8.36E2,3.57E2,4.79E2,8.2E1,7.54E2,2.37E2,1.2E2,1.1E1,4.68E2,3.7E1,4.5E1,1.42E2,6.12E2,1.78E2,5.9E1,1.07E2,1.3E1,1.11E2,3.57E2,2.3E1,1.4E1,1.4E1,3.1E1,1.2E1,1.3E2,4.1E1,5.71E2],"tree_param":{"num_deleted":"0","num_feature":"8","num_nodes":"29","size_leaf_vector":"1"}},{"base_weights":[1.7476272E-3,3.766885E-1,-2.1927805E-1,9.10591E-2,8.3241814E-1,-2.8578287E-1,1.7921948E-1,2.7161597E-3,1.7781178E0,1.3330923E-1,1.2606993E0,-1.2047531E-1,-4.290721E-1,-9.614419E-1,2.943647E-1,1.3821836E-2,-1.0402703E-1,2.8538996E-1,7.2719485E-2,2.2403888E-1,-4.0814783E-2,-2.4078058E-2,1.3837434E-1,4.7575053E-2,-3.7708618E-2,-5.2977037E-2,1.6131464E-2,-1.6948336E-1,-3.5457607E-2,6.989949E-2,8.998455E-3],"categories":[],"categories_nodes":[],"categories_segments":[],"categories_sizes":[],"default_left":[0,0,0,0,0,0,0,0,0,0,0,0,0,0,0,0,0,0,0,0,0,0,0,0,0,0,0,0,0,0,0],"id":20,"left_children":[1,3,5,7,9,11,13,15,17,19,21,23,25,27,29,-1,-1,-1,-1,-1,-1,-1,-1,-1,-1,-1,-1,-1,-1,-1,-1],"loss_changes":[1.3874248E2,8.066729E1,2.796848E1,5.6899307E1,7.125276E1,2.1282532E1,2.00489E1,5.1637917E1,1.9047256E1,1.060598E2,2.7790237E1,6.45817E1,2.883709E1,5.4250975E0,1.127058E1,0E0,0E0,0E0,0E0,0E0,0E0,0E0,0E0,0E0,0E0,0E0,0E0,0E0,0E0,0E0,0E0],"parents":[2147483647,0,0,1,1,2,2,3,3,4,4,5,5,6,6,7,7,8,8,9,9,10,10,11,11,12,12,13,13,14,14],"right_children":[2,4,6,8,10,12,14,16,18,20,22,24,26,28,30,-1,-1,-1,-1,-1,-1,-1,-1,-1,-1,-1,-1,-1,-1,-1,-1],"split_conditions":[3.0917525E-1,4.5416507E-1,1.9248009E0,7.168841E-1,-5.183412E-1,3.7744996E-1,5.945975E-1,1.6116754E0,3.3022195E-1,1.9938907E-1,2.2495028E-1,-1.0965449E-2,3.2968906E-1,3.6133137E-1,6.202354E-1,1.3821836E-2,-1.0402703E-1,2.8538996E-1,7.2719485E-2,2.2403888E-1,-4.0814783E-2,-2.4078058E-2,1.3837434E-1,4.7575053E-2,-3.7708618E-2,-5.2977037E-2,1.6131464E-2,-1.6948336E-1,-3.5457607E-2,6.989949E-2,8.998455E-3],"split_indices":[3,4,0,7,5,4,6,0,2,3,3,5,2,1,6,0,0,0,0,0,0,0,0,0,0,0,0,0,0,0,0],"split_type":[0,0,0,0,0,0,0,0,0,0,0,0,0,0,0,0,0,0,0,0,0,0,0,0,0,0,0,0,0,0,0],"sum_hessian":[1.672E3,6.2E2,1.052E3,3.82E2,2.38E2,9.02E2,1.5E2,3.64E2,1.8E1,9.1E1,1.47E2,4.2E2,4.82E2,1.3E1,1.37E2,3.23E2,4.1E1,8E0,1E1,1.8E1,7.3E1,1.1E1,1.36E2,1.26E2,2.94E2,4.12E2,7E1,5E0,8E0,4.5E1,9.2E1],"tree_param":{"num_deleted":"0","num_feature":"8","num_nodes":"31","size_leaf_vector":"1"}},{"base_weights":[1.8253746E-3,3.3994633E-1,-1.9748606E-1,8.267886E-2,7.503794E-1,-2.637143E-1,1.2679997E-1,2.1700838E-3,1.6196802E0,3.589054E-1,1.3933873E0,-1.1488107E-1,-4.1307876E-1,-8.8065064E-1,2.1160424E-1,1.2443929E-2,-9.387202E-2,2.6002195E-1,6.6108614E-2,2.0844357E-1,1.2192458E-2,1.971799E-1,9.1044895E-2,3.5627164E-2,-3.409212E-2,-5.2328635E-2,2.002031E-2,-1.5535976E-1,-3.2305818E-2,6.306149E-2,4.9735704E-3],"categories":[],"categories_nodes":[],"categories_segments":[],"categories_sizes":[],"default_left":[0,0,0,0,0,0,0,0,0,0,0,0,0,0,0,0,0,0,0,0,0,0,0,0,0,0,0,0,0,0,0],"id":21,"left_children":[1,3,5,7,9,11,13,15,17,19,21,23,25,27,29,-1,-1,-1,-1,-1,-1,-1,-1,-1,-1,-1,-1,-1,-1,-1,-1],"loss_changes":[1.1282714E2,6.54267E1,2.26623E1,4.7227524E1,5.9485962E1,1.9351341E1,1.541251E1,4.202568E1,1.581374E1,6.0862854E1,2.30569E1,4.6979664E1,2.9605583E1,4.563655E0,1.11594925E1,0E0,0E0,0E0,0E0,0E0,0E0,0E0,0E0,0E0,0E0,0E0,0E0,0E0,0E0,0E0,0E0],"parents":[2147483647,0,0,1,1,2,2,3,3,4,4,5,5,6,6,7,7,8,8,9,9,10,10,11,11,12,12,13,13,14,14],"right_children":[2,4,6,8,10,12,14,16,18,20,22,24,26,28,30,-1,-1,-1,-1,-1,-1,-1,-1,-1,-1,-1,-1,-1,-1,-1,-1],"split_conditions":[3.0917525E-1,4.5416507E-1,4.8417702E-1,7.168841E-1,-4.964832E-1,3.8411492E-1,5.945975E-1,1.6116754E0,3.3022195E-1,1.9656569E-1,2.9019716E-1,-1.0965449E-2,3.2886818E-1,3.6133137E-1,6.202354E-1,1.2443929E-2,-9.387202E-2,2.6002195E-1,6.6108614E-2,2.0844357E-1,1.2192458E-2,1.971799E-1,9.1044895E-2,3.5627164E-2,-3.409212E-2,-5.2328635E-2,2.002031E-2,-1.5535976E-1,-3.2305818E-2,6.306149E-2,4.9735704E-3],"split_indices":[3,4,4,7,5,4,6,0,2,3,3,5,2,1,6,0,0,0,0,0,0,0,0,0,0,0,0,0,0,0,0],"split_type":[0,0,0,0,0,0,0,0,0,0,0,0,0,0,0,0,0,0,0,0,0,0,0,0,0,0,0,0,0,0,0],"sum_hessian":[1.672E3,6.2E2,1.052E3,3.82E2,2.38E2,8.74E2,1.78E2,3.64E2,1.8E1,1.49E2,8.9E1,4.39E2,4.35E2,1.3E1,1.65E2,3.23E2,4.1E1,8E0,1E1,1.7E1,1.32E2,3.9E1,5E1,1.42E2,2.97E2,3.69E2,6.6E1,5E0,8E0,4.5E1,1.2E2],"tree_param":{"num_deleted":"0","num_feature":"8","num_nodes":"31","size_leaf_vector":"1"}},{"base_weights":[2.033243E-3,3.0724567E-1,-1.778708E-1,-3.2995588E-1,4.60727E-1,-2.3184688E-1,1.4542904E-1,3.0607513E-1,-7.1189624E-1,1.8391736E-1,9.70268E-1,-1.0104024E0,-2.0841375E-1,-8.0670464E-1,2.4169312E-1,-2.814424E-2,9.1017716E-2,-9.0419225E-2,8.089953E-2,-1.1814096E-1,2.6786963E-2,-5.193896E-2,1.3183665E-1,-1.3176672E-1,-2.72495E-2,-1.6553747E-2,-5.4696452E-2,-1.4241312E-1,-2.9434202E-2,8.48806E-2,1.4855491E-2],"categories":[],"categories_nodes":[],"categories_segments":[],"categories_sizes":[],"default_left":[0,0,0,0,0,0,0,0,0,0,0,0,0,0,0,0,0,0,0,0,0,0,0,0,0,0,0,0,0,0,0],"id":22,"left_children":[1,3,5,7,9,11,13,15,17,19,21,23,25,27,29,-1,-1,-1,-1,-1,-1,-1,-1,-1,-1,-1,-1,-1,-1,-1,-1],"loss_changes":[9.193026E1,6.0897995E1,1.841769E1,2.9652514E1,7.037012E1,1.6141865E1,1.3978571E1,1.6645378E1,2.2968071E1,3.7591972E1,9.202904E1,5.37698E0,1.258308E1,3.8378181E0,7.5774364E0,0E0,0E0,0E0,0E0,0E0,0E0,0E0,0E0,0E0,0E0,0E0,0E0,0E0,0E0,0E0,0E0],"parents":[2147483647,0,0,1,1,2,2,3,3,4,4,5,5,6,6,7,7,8,8,9,9,10,10,11,11,12,12,13,13,14,14],"right_children":[2,4,6,8,10,12,14,16,18,20,22,24,26,28,30,-1,-1,-1,-1,-1,-1,-1,-1,-1,-1,-1,-1,-1,-1,-1,-1],"split_conditions":[3.0917525E-1,2.869763E-1,1.9248009E0,8.71687E-2,-4.9025205E-1,-4.648248E-1,5.945975E-1,9.171112E-1,-3.9287928E-1,9.498345E-1,2.6665038E-1,7.5504065E-1,4.141213E-1,3.6133137E-1,3.2705975E-1,-2.814424E-2,9.1017716E-2,-9.0419225E-2,8.089953E-2,-1.1814096E-1,2.6786963E-2,-5.193896E-2,1.3183665E-1,-1.3176672E-1,-2.72495E-2,-1.6553747E-2,-5.4696452E-2,-1.4241312E-1,-2.9434202E-2,8.48806E-2,1.4855491E-2],"split_indices":[3,1,0,3,5,5,6,0,5,0,2,7,1,1,2,0,0,0,0,0,0,0,0,0,0,0,0,0,0,0,0],"split_type":[0,0,0,0,0,0,0,0,0,0,0,0,0,0,0,0,0,0,0,0,0,0,0,0,0,0,0,0,0,0,0],"sum_hessian":[1.672E3,6.2E2,1.052E3,1.2E2,5E2,9.02E2,1.5E2,4.5E1,7.5E1,3.25E2,1.75E2,2.5E1,8.77E2,1.3E1,1.37E2,2.3E1,2.2E1,6.7E1,8E0,1.8E1,3.07E2,3.3E1,1.42E2,1.7E1,8E0,7.8E2,9.7E1,5E0,8E0,1.7E1,1.2E2],"tree_param":{"num_deleted":"0","num_feature":"8","num_nodes":"31","size_leaf_vector":"1"}},{"base_weights":[1.644367E-3,2.7657253E-1,-1.6039936E-1,-3.0555117E-1,4.1394064E-1,-2.1426718E-1,1.0325845E-1,1.9075207E-1,-7.984286E-1,2.261049E-1,3.4052E-1,-7.1386404E-2,-3.433892E-1,-7.3902327E-1,1.7427462E-1,1.05534814E-1,-1.2741046E-4,1.3744198E-2,-1.0133678E-1,3.5577433E-3,8.011814E-2,4.2447172E-2,-2.8062114E-2,-4.319687E-2,1.8909095E-2,-1.2351972E-1,-1.9999312E-2,5.4221332E-2,3.2130387E-3],"categories":[],"categories_nodes":[],"categories_segments":[],"categories_sizes":[],"default_left":[0,0,0,0,0,0,0,0,0,0,0,0,0,0,0,0,0,0,0,0,0,0,0,0,0,0,0,0,0],"id":23,"left_children":[1,3,5,7,9,11,13,15,17,-1,19,21,23,25,27,-1,-1,-1,-1,-1,-1,-1,-1,-1,-1,-1,-1,-1,-1],"loss_changes":[7.4588776E1,4.9795723E1,1.4988638E1,2.932245E1,6.7184685E1,1.6076939E1,1.0779315E1,1.0068258E1,1.2296188E1,0E0,6.801834E1,4.3368793E1,2.1755531E1,3.3537874E0,8.607004E0,0E0,0E0,0E0,0E0,0E0,0E0,0E0,0E0,0E0,0E0,0E0,0E0,0E0,0E0],"parents":[2147483647,0,0,1,1,2,2,3,3,4,4,5,5,6,6,7,7,8,8,10,10,11,11,12,12,13,13,14,14],"right_children":[2,4,6,8,10,12,14,16,18,-1,20,22,24,26,28,-1,-1,-1,-1,-1,-1,-1,-1,-1,-1,-1,-1,-1,-1],"split_conditions":[3.0917525E-1,3.65008E-1,4.8417702E-1,8.71687E-2,4.0020472E-1,3.7584832E-1,5.945975E-1,-5.532028E-1,8.7674433E-1,2.261049E-1,-4.9025205E-1,-1.0965449E-2,3.2968906E-1,3.4045216E-1,6.202354E-1,1.05534814E-1,-1.2741046E-4,1.3744198E-2,-1.0133678E-1,3.5577433E-3,8.011814E-2,4.2447172E-2,-2.8062114E-2,-4.319687E-2,1.8909095E-2,-1.2351972E-1,-1.9999312E-2,5.4221332E-2,3.2130387E-3],"split_indices":[3,4,4,3,6,4,6,5,0,0,5,5,2,2,6,0,0,0,0,0,0,0,0,0,0,0,0,0,0],"split_type":[0,0,0,0,0,0,0,0,0,0,0,0,0,0,0,0,0,0,0,0,0,0,0,0,0,0,0,0,0],"sum_hessian":[1.672E3,6.2E2,1.052E3,1.18E2,5.02E2,8.74E2,1.78E2,5.9E1,5.9E1,1.8E1,4.84E2,4.16E2,4.58E2,1.3E1,1.65E2,1E1,4.9E1,1.1E1,4.8E1,2.92E2,1.92E2,1.23E2,2.93E2,3.93E2,6.5E1,6E0,7E0,4.5E1,1.2E2],"tree_param":{"num_deleted":"0","num_feature":"8","num_nodes":"29","size_leaf_vector":"1"}},{"base_weights":[1.6303422E-3,2.4947503E-1,-1.4444105E-1,-2.5738266E-1,3.9368346E-1,-8.3117075E-2,-3.4701476E-1,2.4477491E-1,-5.466173E-1,1.5446854E-1,8.462384E-1,-1.5780126E-1,8.513986E-1,4.059391E-2,-3.7138864E-1,-2.145837E-2,6.9856524E-2,-8.669897E-2,-3.3853762E-3,3.418262E-2,-3.967115E-2,1.14972405E-1,-4.6689544E-2,1.1342005E-1,-1.8760566E-2,1.5265204E-1,-4.7032844E-2,-6.3349284E-2,-3.0783385E-2],"categories":[],"categories_nodes":[],"categories_segments":[],"categories_sizes":[],"default_left":[0,0,0,0,0,0,0,0,0,0,0,0,0,0,0,0,0,0,0,0,0,0,0,0,0,0,0,0,0],"id":24,"left_children":[1,3,5,7,9,11,13,15,17,19,21,23,25,-1,27,-1,-1,-1,-1,-1,-1,-1,-1,-1,-1,-1,-1,-1,-1],"loss_changes":[6.061419E1,4.5505806E1,1.3009165E1,2.0207294E1,5.216603E1,5.659776E1,4.6252956E0,1.0829376E1,1.433679E1,3.2969276E1,6.7157455E1,2.9037123E1,5.4363182E1,0E0,3.658802E0,0E0,0E0,0E0,0E0,0E0,0E0,0E0,0E0,0E0,0E0,0E0,0E0,0E0,0E0],"parents":[2147483647,0,0,1,1,2,2,3,3,4,4,5,5,6,6,7,7,8,8,9,9,10,10,11,11,12,12,14,14],"right_children":[2,4,6,8,10,12,14,16,18,20,22,24,26,-1,28,-1,-1,-1,-1,-1,-1,-1,-1,-1,-1,-1,-1,-1,-1],"split_conditions":[3.0917525E-1,2.8803816E-1,7.451403E-1,1.010392E-1,-4.9025205E-1,7.2797954E-1,2.7618936E-1,9.171112E-1,2.8203252E-1,-5.0732857E-1,-3.8038382E-1,3.9283615E-1,3.8294807E-1,4.059391E-2,-1.9954573E-1,-2.145837E-2,6.9856524E-2,-8.669897E-2,-3.3853762E-3,3.418262E-2,-3.967115E-2,1.14972405E-1,-4.6689544E-2,1.1342005E-1,-1.8760566E-2,1.5265204E-1,-4.7032844E-2,-6.3349284E-2,-3.0783385E-2],"split_indices":[3,1,6,3,5,6,1,0,1,5,5,7,4,0,5,0,0,0,0,0,0,0,0,0,0,0,0,0,0],"split_type":[0,0,0,0,0,0,0,0,0,0,0,0,0,0,0,0,0,0,0,0,0,0,0,0,0,0,0,0,0],"sum_hessian":[1.672E3,6.2E2,1.052E3,1.37E2,4.83E2,8.09E2,2.43E2,5E1,8.7E1,3.17E2,1.66E2,7.5E2,5.9E1,7E0,2.36E2,2.5E1,2.5E1,5.3E1,3.4E1,2.37E2,8E1,1.35E2,3.1E1,1.6E1,7.34E2,3.9E1,2E1,4.4E1,1.92E2],"tree_param":{"num_deleted":"0","num_feature":"8","num_nodes":"29","size_leaf_vector":"1"}},{"base_weights":[1.5437424E-3,1.5962404E-1,-1.9497108E-1,6.7863636E-2,4.8041603E-1,1.5078929E-1,-2.3456597E-1,-2.853193E-1,1.3323484E-1,8.633534E-1,2.718834E-1,7.4368256E-1,-2.6276234E-1,-5.332098E-1,-1.5087728E-1,2.6746294E-2,-7.4595414E-2,1.9090367E-4,5.470666E-2,4.693105E-2,2.1047091E-1,1.0039558E-1,2.1707606E-2,1.04752496E-1,5.929957E-3,-5.9947845E-2,-9.359036E-3,-1.0640804E-1,-4.63537E-2,7.647139E-2,-2.120611E-2],"categories":[],"categories_nodes":[],"categories_segments":[],"categories_sizes":[],"default_left":[0,0,0,0,0,0,0,0,0,0,0,0,0,0,0,0,0,0,0,0,0,0,0,0,0,0,0,0,0,0,0],"id":25,"left_children":[1,3,5,7,9,11,13,15,17,19,21,23,25,27,29,-1,-1,-1,-1,-1,-1,-1,-1,-1,-1,-1,-1,-1,-1,-1,-1],"loss_changes":[5.199954E1,2.7229183E1,1.0256744E1,1.6715425E1,1.610186E1,1.912329E1,1.6596535E1,2.9020638E1,3.3149944E1,3.3973446E1,5.076563E0,6.4814224E0,2.4948826E0,4.754135E0,2.9517075E1,0E0,0E0,0E0,0E0,0E0,0E0,0E0,0E0,0E0,0E0,0E0,0E0,0E0,0E0,0E0,0E0],"parents":[2147483647,0,0,1,1,2,2,3,3,4,4,5,5,6,6,7,7,8,8,9,9,10,10,11,11,12,12,13,13,14,14],"right_children":[2,4,6,8,10,12,14,16,18,20,22,24,26,28,30,-1,-1,-1,-1,-1,-1,-1,-1,-1,-1,-1,-1,-1,-1,-1,-1],"split_conditions":[6.6058856E-1,3.4231544E-1,2.2868584E-1,2.6067075E-1,2.9019716E-1,2.712253E-1,2.4001199E-1,2.4561217E-1,-4.3429172E-1,7.458986E-1,5.525614E-1,4.063425E-1,2.759189E-1,-1.0965449E-2,2.7425453E-1,2.6746294E-2,-7.4595414E-2,1.9090367E-4,5.470666E-2,4.693105E-2,2.1047091E-1,1.0039558E-1,2.1707606E-2,1.04752496E-1,5.929957E-3,-5.9947845E-2,-9.359036E-3,-1.0640804E-1,-4.63537E-2,7.647139E-2,-2.120611E-2],"split_indices":[6,2,4,2,3,1,2,2,5,7,6,7,7,5,2,0,0,0,0,0,0,0,0,0,0,0,0,0,0,0,0],"split_type":[0,0,0,0,0,0,0,0,0,0,0,0,0,0,0,0,0,0,0,0,0,0,0,0,0,0,0,0,0,0,0],"sum_hessian":[1.672E3,9.27E2,7.45E2,7.22E2,2.05E2,7.6E1,6.69E2,1.12E2,6.1E2,7.1E1,1.34E2,3.1E1,4.5E1,1.45E2,5.24E2,5.1E1,6.1E1,4.64E2,1.46E2,5.5E1,1.6E1,8E0,1.26E2,2.1E1,1E1,1.4E1,3.1E1,1.5E1,1.3E2,3.2E1,4.92E2],"tree_param":{"num_deleted":"0","num_feature":"8","num_nodes":"31","size_leaf_vector":"1"}},{"base_weights":[1.604843E-3,2.0982575E-1,-1.2109867E-1,6.351144E-3,4.9007294E-1,-1.4705516E-1,2.6778194E-1,-3.4747624E-1,1.23770684E-1,1.250226E0,2.8056493E-1,-1.0249193E-2,-2.1581091E-1,-4.8867464E-1,4.2977643E-1,5.9964345E-3,-7.073194E-2,1.0347088E-1,-1.0095273E-2,-1.1055804E-2,1.448921E-1,-4.9737148E-2,6.515733E-2,1.0825542E-1,-2.2208123E-2,-4.9340434E-2,-8.315259E-3,-0E0,-8.320067E-2,1.8571412E-2,8.771727E-2],"categories":[],"categories_nodes":[],"categories_segments":[],"categories_sizes":[],"default_left":[0,0,0,0,0,0,0,0,0,0,0,0,0,0,0,0,0,0,0,0,0,0,0,0,0,0,0,0,0,0,0],"id":26,"left_children":[1,3,5,7,9,11,13,15,17,19,21,23,25,27,29,-1,-1,-1,-1,-1,-1,-1,-1,-1,-1,-1,-1,-1,-1,-1,-1],"loss_changes":[4.277849E1,3.5358643E1,1.0656266E1,1.5018832E1,4.106254E1,9.268505E0,8.29189E0,1.3302471E1,5.587871E1,1.54353485E1,5.979541E1,7.700929E1,2.4095396E1,1.9800117E0,5.7363997E0,0E0,0E0,0E0,0E0,0E0,0E0,0E0,0E0,0E0,0E0,0E0,0E0,0E0,0E0,0E0,0E0],"parents":[2147483647,0,0,1,1,2,2,3,3,4,4,5,5,6,6,7,7,8,8,9,9,10,10,11,11,12,12,13,13,14,14],"right_children":[2,4,6,8,10,12,14,16,18,20,22,24,26,28,30,-1,-1,-1,-1,-1,-1,-1,-1,-1,-1,-1,-1,-1,-1,-1,-1],"split_conditions":[3.0917525E-1,7.10396E-1,3.545408E-1,5.9453136E-1,4.9421316E-1,3.4345374E-1,3.3222288E-1,8.299488E-2,1.5185367E-1,-5.42508E-1,-5.215003E-1,-1.0965449E-2,2.9184347E-1,5.113047E-1,5.2572864E-1,5.9964345E-3,-7.073194E-2,1.0347088E-1,-1.0095273E-2,-1.1055804E-2,1.448921E-1,-4.9737148E-2,6.515733E-2,1.0825542E-1,-2.2208123E-2,-4.9340434E-2,-8.315259E-3,-0E0,-8.320067E-2,1.8571412E-2,8.771727E-2],"split_indices":[3,7,2,7,6,4,3,3,3,5,5,5,2,4,4,0,0,0,0,0,0,0,0,0,0,0,0,0,0,0,0],"split_type":[0,0,0,0,0,0,0,0,0,0,0,0,0,0,0,0,0,0,0,0,0,0,0,0,0,0,0,0,0,0,0],"sum_hessian":[1.672E3,6.2E2,1.052E3,3.6E2,2.6E2,9.87E2,6.5E1,8.9E1,2.71E2,5.5E1,2.05E2,3.31E2,6.56E2,1.1E1,5.4E1,4.2E1,4.7E1,5.3E1,2.18E2,7E0,4.8E1,6.6E1,1.39E2,5.3E1,2.78E2,2.11E2,4.45E2,5E0,6E0,3.6E1,1.8E1],"tree_param":{"num_deleted":"0","num_feature":"8","num_nodes":"31","size_leaf_vector":"1"}},{"base_weights":[1.5671074E-3,2.007467E-1,-1.028309E-1,1.176641E-1,1.0517409E0,-1.6197184E-1,1.3081521E-1,-2.6431364E-1,2.2662441E-1,2.0765789E-1,7.8030944E-1,-8.111719E-1,-1.2904316E-1,4.6723798E-1,8.377656E-3,1.436313E-2,-6.301298E-2,5.3253225E-3,6.980618E-2,1.3230005E-1,4.2611074E-2,-9.67665E-2,-4.2192377E-2,-8.671272E-3,-4.4591215E-2,9.980386E-2,-7.5803907E-3,-3.886173E-2,1.9705938E-2],"categories":[],"categories_nodes":[],"categories_segments":[],"categories_sizes":[],"default_left":[0,0,0,0,0,0,0,0,0,0,0,0,0,0,0,0,0,0,0,0,0,0,0,0,0,0,0,0,0],"id":27,"left_children":[1,3,5,7,9,11,13,15,17,-1,19,21,23,25,27,-1,-1,-1,-1,-1,-1,-1,-1,-1,-1,-1,-1,-1,-1],"loss_changes":[3.4818718E1,4.0484123E1,1.5196525E1,2.1948467E1,1.2280777E1,1.8549194E1,9.092876E0,1.7599398E1,3.339849E1,0E0,7.3346004E0,2.011177E0,1.112151E1,1.717445E1,1.2341958E1,0E0,0E0,0E0,0E0,0E0,0E0,0E0,0E0,0E0,0E0,0E0,0E0,0E0,0E0],"parents":[2147483647,0,0,1,1,2,2,3,3,4,4,5,5,6,6,7,7,8,8,10,10,11,11,12,12,13,13,14,14],"right_children":[2,4,6,8,10,12,14,16,18,-1,20,22,24,26,28,-1,-1,-1,-1,-1,-1,-1,-1,-1,-1,-1,-1,-1,-1],"split_conditions":[2.9611775E-1,3.8053575E-1,4.7635216E-1,2.869763E-1,2.4504232E-1,-4.448262E-1,3.2705975E-1,3.7389663E-1,-4.9025205E-1,2.0765789E-1,1.7572218E0,7.5504065E-1,4.141213E-1,6.448025E-1,3.3967394E-1,1.436313E-2,-6.301298E-2,5.3253225E-3,6.980618E-2,1.3230005E-1,4.2611074E-2,-9.67665E-2,-4.2192377E-2,-8.671272E-3,-4.4591215E-2,9.980386E-2,-7.5803907E-3,-3.886173E-2,1.9705938E-2],"split_indices":[3,1,4,1,3,5,2,6,5,0,0,7,1,6,2,0,0,0,0,0,0,0,0,0,0,0,0,0,0],"split_type":[0,0,0,0,0,0,0,0,0,0,0,0,0,0,0,0,0,0,0,0,0,0,0,0,0,0,0,0,0],"sum_hessian":[1.672E3,5.75E2,1.097E3,5.25E2,5E1,8.76E2,2.21E2,1.16E2,4.09E2,9E0,4.1E1,4.1E1,8.35E2,5.8E1,1.63E2,5.5E1,6.1E1,3E2,1.09E2,1.5E1,2.6E1,2.8E1,1.3E1,7.38E2,9.7E1,2.9E1,2.9E1,5.2E1,1.11E2],"tree_param":{"num_deleted":"0","num_feature":"8","num_nodes":"29","size_leaf_vector":"1"}},{"base_weights":[1.5836881E-3,1.8145165E-1,-9.268364E-2,1.05967075E-1,9.5446014E-1,-1.4602804E-1,1.1801783E-1,-2.7510464E-2,3.9366734E-1,1.8896866E-1,7.06681E-1,-7.1468043E-1,-1.15013175E-1,5.642875E-1,3.9360378E-2,3.3831846E-3,-1.675173E-1,1.2065794E-1,9.224691E-3,-1.8809427E-2,8.638128E-2,-7.995169E-2,-1.2563728E-2,-3.6733553E-3,-2.6188994E-2,1.0999856E-1,1.0640546E-2,-6.436085E-2,1.2408382E-2],"categories":[],"categories_nodes":[],"categories_segments":[],"categories_sizes":[],"default_left":[0,0,0,0,0,0,0,0,0,0,0,0,0,0,0,0,0,0,0,0,0,0,0,0,0,0,0,0,0],"id":28,"left_children":[1,3,5,7,9,11,13,15,17,-1,19,21,23,25,27,-1,-1,-1,-1,-1,-1,-1,-1,-1,-1,-1,-1,-1,-1],"loss_changes":[2.8392532E1,3.3402542E1,1.2361275E1,2.0246647E1,1.0223164E1,1.5302202E1,7.710165E0,3.660652E1,4.067855E1,0E0,6.135153E0,2.055788E0,9.537899E0,7.8567734E0,1.1021969E1,0E0,0E0,0E0,0E0,0E0,0E0,0E0,0E0,0E0,0E0,0E0,0E0,0E0,0E0],"parents":[2147483647,0,0,1,1,2,2,3,3,4,4,5,5,6,6,7,7,8,8,10,10,11,11,12,12,13,13,14,14],"right_children":[2,4,6,8,10,12,14,16,18,-1,20,22,24,26,28,-1,-1,-1,-1,-1,-1,-1,-1,-1,-1,-1,-1,-1,-1],"split_conditions":[2.9611775E-1,3.8053575E-1,4.7635216E-1,7.163282E-1,2.4504232E-1,-4.4272515E-1,7.3020756E-1,3.2968906E-1,4.9421316E-1,1.8896866E-1,2.60806E-1,7.600758E-1,3.2948473E-1,-3.8864532E-1,5.945975E-1,3.3831846E-3,-1.675173E-1,1.2065794E-1,9.224691E-3,-1.8809427E-2,8.638128E-2,-7.995169E-2,-1.2563728E-2,-3.6733553E-3,-2.6188994E-2,1.0999856E-1,1.0640546E-2,-6.436085E-2,1.2408382E-2],"split_indices":[3,1,4,7,3,5,7,2,6,0,3,7,1,5,6,0,0,0,0,0,0,0,0,0,0,0,0,0,0],"split_type":[0,0,0,0,0,0,0,0,0,0,0,0,0,0,0,0,0,0,0,0,0,0,0,0,0,0,0,0,0],"sum_hessian":[1.672E3,5.75E2,1.097E3,5.25E2,5E1,8.76E2,2.21E2,3.59E2,1.66E2,9E0,4.1E1,4.4E1,8.32E2,3.2E1,1.89E2,3.47E2,1.2E1,4.4E1,1.22E2,6E0,3.5E1,3.8E1,6E0,5.44E2,2.88E2,1.4E1,1.8E1,2E1,1.69E2],"tree_param":{"num_deleted":"0","num_feature":"8","num_nodes":"29","size_leaf_vector":"1"}},{"base_weights":[1.5260874E-3,-2.2231318E-1,7.027496E-2,-1.0806122E-1,-6.338607E-1,1.5968117E0,3.7297457E-2,1.7876722E-1,-2.1814686E-1,-7.2876495E-1,7.205057E-2,-8.169258E-2,2.4874659E0,-4.9892414E-1,7.824555E-2,5.9631653E-2,-1.9510863E-2,7.4319355E-2,-2.7175222E-2,2.7713532E-2,-8.303874E-2,1.4505838E-1,2.9265115E-1,-1.0314889E-1,-3.382067E-2,9.5831655E-2,4.929695E-3],"categories":[],"categories_nodes":[],"categories_segments":[],"categories_sizes":[],"default_left":[0,0,0,0,0,0,0,0,0,0,0,0,0,0,0,0,0,0,0,0,0,0,0,0,0,0,0],"id":29,"left_children":[1,3,5,7,9,11,13,15,17,19,-1,-1,21,23,25,-1,-1,-1,-1,-1,-1,-1,-1,-1,-1,-1,-1],"loss_changes":[2.5745707E1,1.8336218E1,6.426432E1,9.799825E0,1.1451389E1,6.024389E1,2.7553324E1,1.3582066E1,1.1698207E1,8.463219E0,0E0,0E0,4.4219055E0,7.131901E0,2.958345E1,0E0,0E0,0E0,0E0,0E0,0E0,0E0,0E0,0E0,0E0,0E0,0E0],"parents":[2147483647,0,0,1,1,2,2,3,3,4,4,5,5,6,6,7,7,8,8,9,9,12,12,13,13,14,14],"right_children":[2,4,6,8,10,12,14,16,18,20,-1,-1,22,24,26,-1,-1,-1,-1,-1,-1,-1,-1,-1,-1,-1,-1],"split_conditions":[2.6665038E-1,3.3648416E-1,2.6792443E-1,2.2868584E-1,1.4678601E0,-4.036353E-1,9.441316E-1,2.712253E-1,-5.467333E-1,8.71687E-2,7.205057E-2,-8.169258E-2,2.8844616E-1,1.2473568E-1,4.0020472E-1,5.9631653E-2,-1.9510863E-2,7.4319355E-2,-2.7175222E-2,2.7713532E-2,-8.303874E-2,1.4505838E-1,2.9265115E-1,-1.0314889E-1,-3.382067E-2,9.5831655E-2,4.929695E-3],"split_indices":[2,4,2,4,0,5,0,1,5,3,0,0,1,3,6,0,0,0,0,0,0,0,0,0,0,0,0],"split_type":[0,0,0,0,0,0,0,0,0,0,0,0,0,0,0,0,0,0,0,0,0,0,0,0,0,0,0],"sum_hessian":[1.672E3,3.92E2,1.28E3,3.08E2,8.4E1,2.6E1,1.254E3,8.5E1,2.23E2,7.9E1,5E0,7E0,1.9E1,8.8E1,1.166E3,4E1,4.5E1,1.1E1,2.12E2,7E0,7.2E1,7E0,1.2E1,1.9E1,6.9E1,3.6E1,1.13E3],"tree_param":{"num_deleted":"0","num_feature":"8","num_nodes":"27","size_leaf_vector":"1"}},{"base_weights":[1.6328028E-3,1.0821643E-1,-1.2672774E-1,-2.3083535E-1,1.6834615E-1,-4.7042254E-2,-3.2004786E-1,2.1947484E-1,-4.6692386E-1,-1.7220989E-2,3.7434664E-1,-2.878983E-1,1.1585732E-1,-1.6918392E-1,-5.247941E-1,-1.6764197E-2,5.5732913E-2,4.2637922E-2,-6.6451356E-2,-1.2304115E-1,2.219785E-3,9.189321E-2,1.6530914E-2,-5.83928E-2,-2.1546246E-2,-1.9911945E-2,9.31121E-2,5.0718314E-3,-2.0620158E-2,-8.20339E-2,-2.633583E-2],"categories":[],"categories_nodes":[],"categories_segments":[],"categories_sizes":[],"default_left":[0,0,0,0,0,0,0,0,0,0,0,0,0,0,0,0,0,0,0,0,0,0,0,0,0,0,0,0,0,0,0],"id":30,"left_children":[1,3,5,7,9,11,13,15,17,19,21,23,25,27,29,-1,-1,-1,-1,-1,-1,-1,-1,-1,-1,-1,-1,-1,-1,-1,-1],"loss_changes":[2.2900398E1,1.8686798E1,1.1640483E1,1.4798426E1,2.9782705E1,2.1198412E1,6.668247E0,6.4102764E0,1.636933E1,1.9755384E1,4.1746178E1,4.468857E0,8.2944695E1,1.0761003E0,6.86133E0,0E0,0E0,0E0,0E0,0E0,0E0,0E0,0E0,0E0,0E0,0E0,0E0,0E0,0E0,0E0,0E0],"parents":[2147483647,0,0,1,1,2,2,3,3,4,4,5,5,6,6,7,7,8,8,9,9,10,10,11,11,12,12,13,13,14,14],"right_children":[2,4,6,8,10,12,14,16,18,20,22,24,26,28,30,-1,-1,-1,-1,-1,-1,-1,-1,-1,-1,-1,-1,-1,-1,-1,-1],"split_conditions":[4.018577E-1,2.6665038E-1,3.3355042E-1,3.602078E-1,-4.8681226E-1,-1.6970934E-1,3.1816825E-1,3.1172907E-1,3.0855387E-1,2.7988285E-1,2.9019716E-1,4.062896E-1,2.6608172E-1,6.3169456E-1,6.414787E-1,-1.6764197E-2,5.5732913E-2,4.2637922E-2,-6.6451356E-2,-1.2304115E-1,2.219785E-3,9.189321E-2,1.6530914E-2,-5.83928E-2,-2.1546246E-2,-1.9911945E-2,9.31121E-2,5.0718314E-3,-2.0620158E-2,-8.20339E-2,-2.633583E-2],"split_indices":[3,2,1,6,5,5,2,4,4,1,3,4,2,0,3,0,0,0,0,0,0,0,0,0,0,0,0,0,0,0,0],"split_type":[0,0,0,0,0,0,0,0,0,0,0,0,0,0,0,0,0,0,0,0,0,0,0,0,0,0,0,0,0,0,0],"sum_hessian":[1.672E3,9.14E2,7.58E2,1.37E2,7.77E2,5.38E2,2.2E2,4.7E1,9E1,4.09E2,3.68E2,2.17E2,3.21E2,1.28E2,9.2E1,2.2E1,2.5E1,1.6E1,7.4E1,1.2E1,3.97E2,1.01E2,2.67E2,4.1E1,1.76E2,2.32E2,8.9E1,1.8E1,1.1E2,4.2E1,5E1],"tree_param":{"num_deleted":"0","num_feature":"8","num_nodes":"31","size_leaf_vector":"1"}},{"base_weights":[1.375155E-3,1.4878134E-1,-7.586286E-2,8.323022E-2,8.1997955E-1,-8.014409E-1,-6.43003E-2,-3.479968E-2,3.3776635E-1,1.7608586E-1,6.016565E-1,-2.4654435E-2,-1.00376904E-1,-1.5968177E-2,-2.2981814E-1,2.1534394E-3,-1.5478349E-1,1.5233888E-1,1.6541375E-2,7.7364534E-2,-1.229285E-2,-7.664475E-3,7.714268E-2,-4.4498157E-2,-1.7155446E-2],"categories":[],"categories_nodes":[],"categories_segments":[],"categories_sizes":[],"default_left":[0,0,0,0,0,0,0,0,0,0,0,0,0,0,0,0,0,0,0,0,0,0,0,0,0],"id":31,"left_children":[1,3,5,7,9,11,13,15,17,-1,19,-1,-1,21,23,-1,-1,-1,-1,-1,-1,-1,-1,-1,-1],"loss_changes":[1.9066288E1,2.5184166E1,9.073607E0,1.58446045E1,9.180508E0,1.5361061E0,8.627564E0,3.087072E1,3.3704765E1,0E0,5.518859E0,0E0,0E0,4.0074066E1,2.920845E0,0E0,0E0,0E0,0E0,0E0,0E0,0E0,0E0,0E0,0E0],"parents":[2147483647,0,0,1,1,2,2,3,3,4,4,5,5,6,6,7,7,8,8,10,10,13,13,14,14],"right_children":[2,4,6,8,10,12,14,16,18,-1,20,-1,-1,22,24,-1,-1,-1,-1,-1,-1,-1,-1,-1,-1],"split_conditions":[2.9611775E-1,3.8053575E-1,5.43624E-1,7.163282E-1,2.4344182E-1,1.2534384E0,7.451403E-1,3.2968906E-1,1.9656569E-1,1.7608586E-1,3.678859E-1,-2.4654435E-2,-1.00376904E-1,7.2797954E-1,-1.916029E-1,2.1534394E-3,-1.5478349E-1,1.5233888E-1,1.6541375E-2,7.7364534E-2,-1.229285E-2,-7.664475E-3,7.714268E-2,-4.4498157E-2,-1.7155446E-2],"split_indices":[3,1,6,7,3,0,6,2,3,0,2,0,0,6,5,0,0,0,0,0,0,0,0,0,0],"split_type":[0,0,0,0,0,0,0,0,0,0,0,0,0,0,0,0,0,0,0,0,0,0,0,0,0],"sum_hessian":[1.672E3,5.75E2,1.097E3,5.25E2,5E1,1.6E1,1.081E3,3.59E2,1.66E2,8E0,4.2E1,5E0,1.1E1,8.38E2,2.43E2,3.47E2,1.2E1,2E1,1.46E2,3.4E1,8E0,7.79E2,5.9E1,5E1,1.93E2],"tree_param":{"num_deleted":"0","num_feature":"8","num_nodes":"25","size_leaf_vector":"1"}},{"base_weights":[1.3094967E-3,9.224048E-2,-1.1167343E-1,4.6769055E-3,2.5285524E-1,1.8728596E-1,-1.4601402E-1,-3.0465028E-1,7.235904E-2,-2.2901958E-1,3.97576E-1,6.687407E-1,-1.4953658E-1,-3.9461848E-1,-7.821771E-2,9.6333865E-3,-7.566587E-2,-8.976962E-2,1.1530388E-2,2.9414503E-2,-6.6191815E-2,1.861008E-1,3.415577E-2,9.609635E-2,9.328911E-3,-5.37326E-2,-2.4113806E-3,-3.20213E-2,-9.589489E-2,6.0809672E-2,-1.2837815E-2],"categories":[],"categories_nodes":[],"categories_segments":[],"categories_sizes":[],"default_left":[0,0,0,0,0,0,0,0,0,0,0,0,0,0,0,0,0,0,0,0,0,0,0,0,0,0,0,0,0,0,0],"id":32,"left_children":[1,3,5,7,9,11,13,15,17,19,21,23,25,27,29,-1,-1,-1,-1,-1,-1,-1,-1,-1,-1,-1,-1,-1,-1,-1,-1],"loss_changes":[1.719617E1,1.302446E1,7.681987E0,1.2602242E1,2.2912004E1,1.2638612E1,1.1214342E1,1.971373E1,2.0646408E1,1.7443747E1,1.98028E1,5.1860495E0,2.1682296E0,5.569483E0,1.8206936E1,0E0,0E0,0E0,0E0,0E0,0E0,0E0,0E0,0E0,0E0,0E0,0E0,0E0,0E0,0E0,0E0],"parents":[2147483647,0,0,1,1,2,2,3,3,4,4,5,5,6,6,7,7,8,8,9,9,10,10,11,11,12,12,13,13,14,14],"right_children":[2,4,6,8,10,12,14,16,18,20,22,24,26,28,30,-1,-1,-1,-1,-1,-1,-1,-1,-1,-1,-1,-1,-1,-1,-1,-1],"split_conditions":[6.6058856E-1,-4.3980202E-1,2.2868584E-1,2.869763E-1,2.6574758E-1,2.712253E-1,2.3829365E-1,1.3943066E-1,9.498345E-1,3.217018E-1,3.4345374E-1,5.614903E-1,1.8371145E-1,2.1843927E-1,2.7425453E-1,9.6333865E-3,-7.566587E-2,-8.976962E-2,1.1530388E-2,2.9414503E-2,-6.6191815E-2,1.861008E-1,3.415577E-2,9.609635E-2,9.328911E-3,-5.37326E-2,-2.4113806E-3,-3.20213E-2,-9.589489E-2,6.0809672E-2,-1.2837815E-2],"split_indices":[6,5,4,1,2,1,2,3,0,4,4,0,2,2,2,0,0,0,0,0,0,0,0,0,0,0,0,0,0,0,0],"split_type":[0,0,0,0,0,0,0,0,0,0,0,0,0,0,0,0,0,0,0,0,0,0,0,0,0,0,0,0,0,0,0],"sum_hessian":[1.672E3,9.27E2,7.45E2,6.01E2,3.26E2,7.6E1,6.69E2,1.07E2,4.94E2,7.5E1,2.51E2,3.1E1,4.5E1,1.42E2,5.27E2,5.7E1,5E1,2E1,4.74E2,3.4E1,4.1E1,8E0,2.43E2,2E1,1.1E1,1E1,3.5E1,1.27E2,1.5E1,3.5E1,4.92E2],"tree_param":{"num_deleted":"0","num_feature":"8","num_nodes":"31","size_leaf_vector":"1"}},{"base_weights":[1.1776775E-3,1.3298984E-1,-6.7879684E-2,-4.3764506E-2,3.2697827E-1,-7.102843E-1,-5.763129E-2,8.3104976E-2,-1.4568026E0,1.9225614E-2,6.594738E-1,-4.3994967E-2,-1.11590624E-1,-9.682382E-2,9.504559E-2,-6.215352E-3,9.774366E-2,-1.9180799E-1,-8.757713E-2,-1.1288978E-1,3.450727E-2,-7.3536276E-3,1.0279508E-1,3.6127798E-3,-1.795497E-2,1.190506E-1,6.371315E-3],"categories":[],"categories_nodes":[],"categories_segments":[],"categories_sizes":[],"default_left":[0,0,0,0,0,0,0,0,0,0,0,0,0,0,0,0,0,0,0,0,0,0,0,0,0,0,0],"id":33,"left_children":[1,3,5,7,9,11,13,15,17,19,21,-1,-1,23,25,-1,-1,-1,-1,-1,-1,-1,-1,-1,-1,-1,-1],"loss_changes":[1.5244187E1,1.979269E1,7.111081E0,5.4398407E1,2.8059206E1,1.2175846E0,6.4838448E0,3.626706E1,4.741226E0,5.41834E1,3.5823883E1,0E0,0E0,9.501569E0,7.3842096E0,0E0,0E0,0E0,0E0,0E0,0E0,0E0,0E0,0E0,0E0,0E0,0E0],"parents":[2147483647,0,0,1,1,2,2,3,3,4,4,5,5,6,6,7,7,8,8,9,9,10,10,13,13,14,14],"right_children":[2,4,6,8,10,12,14,16,18,20,22,-1,-1,24,26,-1,-1,-1,-1,-1,-1,-1,-1,-1,-1,-1,-1],"split_conditions":[2.9611775E-1,2.2495028E-1,5.43624E-1,4.8935834E-1,-4.9025205E-1,1.4566091E0,4.7635216E-1,3.445987E-1,3.3511874E-1,7.163282E-1,2.915848E-1,-4.3994967E-2,-1.11590624E-1,3.4345374E-1,5.525614E-1,-6.215352E-3,9.774366E-2,-1.9180799E-1,-8.757713E-2,-1.1288978E-1,3.450727E-2,-7.3536276E-3,1.0279508E-1,3.6127798E-3,-1.795497E-2,1.190506E-1,6.371315E-3],"split_indices":[3,3,6,6,5,0,4,1,2,7,1,0,0,4,6,0,0,0,0,0,0,0,0,0,0,0,0],"split_type":[0,0,0,0,0,0,0,0,0,0,0,0,0,0,0,0,0,0,0,0,0,0,0,0,0,0,0],"sum_hessian":[1.672E3,5.75E2,1.097E3,3.01E2,2.74E2,1.6E1,1.081E3,2.77E2,2.4E1,1.43E2,1.31E2,1.1E1,5E0,8.61E2,2.2E2,2.39E2,3.8E1,1.2E1,1.2E1,3.1E1,1.12E2,4.4E1,8.7E1,3.3E2,5.31E2,5E0,2.15E2],"tree_param":{"num_deleted":"0","num_feature":"8","num_nodes":"27","size_leaf_vector":"1"}},{"base_weights":[9.132977E-4,-1.8111703E-1,4.858746E-2,1.1736012E-1,-3.169032E-1,3.9999524E-1,7.7111064E-3,3.216236E-1,-1.6720992E-1,5.451153E-1,-3.734071E-1,-4.679455E-2,9.663822E-1,1.4515918E-1,-7.4449375E-2,7.756064E-2,-6.775355E-4,-3.4931626E-2,2.5736275E-3,1.12465456E-1,-9.006336E-3,-2.5566643E-2,-7.582814E-2,-2.3878932E-2,1.0207426E-1,1.4816383E-1,-3.412646E-2,-5.22257E-4,5.592773E-2,-5.271842E-2,-4.990365E-3],"categories":[],"categories_nodes":[],"categories_segments":[],"categories_sizes":[],"default_left":[0,0,0,0,0,0,0,0,0,0,0,0,0,0,0,0,0,0,0,0,0,0,0,0,0,0,0,0,0,0,0],"id":34,"left_children":[1,3,5,7,9,11,13,15,17,19,21,23,25,27,29,-1,-1,-1,-1,-1,-1,-1,-1,-1,-1,-1,-1,-1,-1,-1,-1],"loss_changes":[1.4514082E1,1.4120732E1,1.9017529E1,6.405092E0,1.1827446E1,3.50589E1,1.345631E1,9.623738E0,1.6576377E0,5.7264132E0,9.900692E0,1.6152546E1,4.1719803E1,2.783334E1,8.194946E0,0E0,0E0,0E0,0E0,0E0,0E0,0E0,0E0,0E0,0E0,0E0,0E0,0E0,0E0,0E0,0E0],"parents":[2147483647,0,0,1,1,2,2,3,3,4,4,5,5,6,6,7,7,8,8,9,9,10,10,11,11,12,12,13,13,14,14],"right_children":[2,4,6,8,10,12,14,16,18,20,22,24,26,28,30,-1,-1,-1,-1,-1,-1,-1,-1,-1,-1,-1,-1,-1,-1,-1,-1],"split_conditions":[2.6067075E-1,4.442376E-1,2.7282077E-1,2.7618936E-1,-5.435179E-1,-4.036353E-1,3.141215E-1,3.9283615E-1,3.2704416E-1,2.5515252E-1,5.76091E-1,6.740248E-1,2.991449E-1,-4.9025205E-1,5.945975E-1,7.756064E-2,-6.775355E-4,-3.4931626E-2,2.5736275E-3,1.12465456E-1,-9.006336E-3,-2.5566643E-2,-7.582814E-2,-2.3878932E-2,1.0207426E-1,1.4816383E-1,-3.412646E-2,-5.22257E-4,5.592773E-2,-5.271842E-2,-4.990365E-3],"split_indices":[2,7,2,1,5,5,3,7,1,1,7,7,1,5,6,0,0,0,0,0,0,0,0,0,0,0,0,0,0,0,0],"split_type":[0,0,0,0,0,0,0,0,0,0,0,0,0,0,0,0,0,0,0,0,0,0,0,0,0,0,0,0,0,0,0],"sum_hessian":[1.672E3,3.46E2,1.326E3,1.08E2,2.38E2,1.37E2,1.189E3,6.3E1,4.5E1,1.4E1,2.24E2,7.7E1,6E1,4.45E2,7.44E2,2.6E1,3.7E1,2.3E1,2.2E1,7E0,7E0,1.73E2,5.1E1,6.6E1,1.1E1,4.3E1,1.7E1,3.27E2,1.18E2,3.7E1,7.07E2],"tree_param":{"num_deleted":"0","num_feature":"8","num_nodes":"31","size_leaf_vector":"1"}},{"base_weights":[9.3347346E-4,-1.628999E-1,4.3849256E-2,6.572638E-2,-3.092691E-1,-3.0874512E-1,7.764224E-2,8.538351E-2,-7.665302E-2,-2.0033896E-1,-6.1475444E-1,5.0695308E-2,-3.8302767E-1,1.059679E0,4.8313774E-2,-1.504674E-2,5.1206615E-2,-2.0051587E-3,-3.0370513E-2,1.5772998E-2,-7.146042E-2,-6.887936E-2,-2.5923276E-2,2.5453562E-1,-4.7217817E-3,9.2824735E-2,2.2055216E-3],"categories":[],"categories_nodes":[],"categories_segments":[],"categories_sizes":[],"default_left":[0,0,0,0,0,0,0,0,0,0,0,0,0,0,0,0,0,0,0,0,0,0,0,0,0,0,0],"id":35,"left_children":[1,3,5,7,9,11,13,-1,15,17,19,-1,21,23,25,-1,-1,-1,-1,-1,-1,-1,-1,-1,-1,-1,-1],"loss_changes":[1.17581625E1,1.1656637E1,1.5812351E1,1.5403789E1,6.8499603E0,7.210476E0,3.4745583E1,0E0,5.0817785E0,2.9059615E0,4.410679E0,0E0,3.7768307E0,5.7927197E1,2.7103117E1,0E0,0E0,0E0,0E0,0E0,0E0,0E0,0E0,0E0,0E0,0E0,0E0],"parents":[2147483647,0,0,1,1,2,2,3,3,4,4,5,5,6,6,8,8,9,9,10,10,12,12,13,13,14,14],"right_children":[2,4,6,8,10,12,14,-1,16,18,20,-1,22,24,26,-1,-1,-1,-1,-1,-1,-1,-1,-1,-1,-1,-1],"split_conditions":[2.6067075E-1,2.666331E-1,9.498345E-1,3.9283615E-1,5.76091E-1,2.628798E-1,3.269288E-1,8.538351E-2,9.29255E-1,2.8197202E-1,8.1998594E-2,5.0695308E-2,-4.8419645E-1,3.009058E-1,4.0020472E-1,-1.504674E-2,5.1206615E-2,-2.0051587E-3,-3.0370513E-2,1.5772998E-2,-7.146042E-2,-6.887936E-2,-2.5923276E-2,2.5453562E-1,-4.7217817E-3,9.2824735E-2,2.2055216E-3],"split_indices":[2,1,0,7,7,2,4,0,0,4,3,0,5,1,6,0,0,0,0,0,0,0,0,0,0,0,0],"split_type":[0,0,0,0,0,0,0,0,0,0,0,0,0,0,0,0,0,0,0,0,0,0,0,0,0,0,0],"sum_hessian":[1.672E3,3.46E2,1.326E3,1.35E2,2.11E2,1.15E2,1.211E3,2E1,1.15E2,1.57E2,5.4E1,9E0,1.06E2,3.4E1,1.177E3,1.03E2,1.2E1,5.8E1,9.9E1,6E0,4.8E1,2.9E1,7.7E1,1.4E1,2E1,3.3E1,1.144E3],"tree_param":{"num_deleted":"0","num_feature":"8","num_nodes":"27","size_leaf_vector":"1"}},{"base_weights":[1.0339225E-3,-2.3468528E-2,2.5814837E-1,2.024515E-2,-1.843871E-1,5.1485366E-1,-1.0635657E-1,3.387797E-3,1.4433271E0,-7.409215E-1,-1.1264771E-1,-1.01988845E-1,6.439579E-1,-3.2807833E-1,5.314908E-1,-1.4183129E-2,7.006494E-3,2.1465781E-1,6.3506655E-2,-1.2754992E-1,-3.1094996E-3,5.116254E-2,-1.6346758E-2,1.3872664E-1,4.909143E-2,-6.555625E-2,-0E0,8.428477E-2,1.8456353E-2],"categories":[],"categories_nodes":[],"categories_segments":[],"categories_sizes":[],"default_left":[0,0,0,0,0,0,0,0,0,0,0,0,0,0,0,0,0,0,0,0,0,0,0,0,0,0,0,0,0],"id":36,"left_children":[1,3,5,7,9,11,13,15,17,19,21,-1,23,25,27,-1,-1,-1,-1,-1,-1,-1,-1,-1,-1,-1,-1,-1,-1],"loss_changes":[1.0569317E1,1.0768622E1,1.3756879E1,2.868569E1,1.2886796E1,1.7659365E1,8.780932E0,1.1515603E1,6.3163548E0,1.38696E1,9.2809305E0,0E0,8.231842E0,4.933301E0,1.4699907E0,0E0,0E0,0E0,0E0,0E0,0E0,0E0,0E0,0E0,0E0,0E0,0E0,0E0,0E0],"parents":[2147483647,0,0,1,1,2,2,3,3,4,4,5,5,6,6,7,7,8,8,9,9,10,10,12,12,13,13,14,14],"right_children":[2,4,6,8,10,12,14,16,18,20,22,-1,24,26,28,-1,-1,-1,-1,-1,-1,-1,-1,-1,-1,-1,-1,-1,-1],"split_conditions":[3.5301653E-1,3.5514638E-1,3.6655492E-1,3.5406303E-1,2.60806E-1,2.2495028E-1,3.8570514E-1,2.6665038E-1,-5.350714E-1,3.3692652E-1,2.945874E-1,-1.01988845E-1,-5.089941E-1,-4.1446397E-1,7.497609E-1,-1.4183129E-2,7.006494E-3,2.1465781E-1,6.3506655E-2,-1.2754992E-1,-3.1094996E-3,5.116254E-2,-1.6346758E-2,1.3872664E-1,4.909143E-2,-6.555625E-2,-0E0,8.428477E-2,1.8456353E-2],"split_indices":[2,1,2,1,3,3,2,2,5,2,3,0,5,5,7,0,0,0,0,0,0,0,0,0,0,0,0,0,0],"split_type":[0,0,0,0,0,0,0,0,0,0,0,0,0,0,0,0,0,0,0,0,0,0,0,0,0,0,0,0,0],"sum_hessian":[1.672E3,1.527E3,1.45E2,1.201E3,3.26E2,8.5E1,6E1,1.188E3,1.3E1,3.6E1,2.9E2,6E0,7.9E1,4.5E1,1.5E1,3.73E2,8.15E2,6E0,7E0,2E1,1.6E1,2.1E1,2.69E2,1.2E1,6.7E1,2.2E1,2.3E1,7E0,8E0],"tree_param":{"num_deleted":"0","num_feature":"8","num_nodes":"29","size_leaf_vector":"1"}},{"base_weights":[1.1138954E-3,1.0311141E-1,-5.2302934E-2,-2.0454918E-1,1.7720792E-1,-6.4222705E-1,-4.2893495E-2,5.204606E-2,-6.1983097E-1,1.2663525E0,1.09590344E-1,-3.636271E-2,-9.739945E-2,-3.7488963E-3,-1.7690754E-1,3.0884445E-2,-1.4577383E-2,1.9668482E-2,-8.149399E-2,1.7096207E-2,1.7133084E-1,-7.951381E-3,4.607215E-2,-5.900643E-3,7.1299486E-2,-3.615926E-2,-1.1943971E-2],"categories":[],"categories_nodes":[],"categories_segments":[],"categories_sizes":[],"default_left":[0,0,0,0,0,0,0,0,0,0,0,0,0,0,0,0,0,0,0,0,0,0,0,0,0,0,0],"id":37,"left_children":[1,3,5,7,9,11,13,15,17,19,21,-1,-1,23,25,-1,-1,-1,-1,-1,-1,-1,-1,-1,-1,-1,-1],"loss_changes":[9.12562E0,1.3164339E1,5.9987793E0,1.2023684E1,3.3968693E1,1.0833831E0,5.6573634E0,3.6173165E0,7.072418E0,1.2737625E1,2.9224512E1,0E0,0E0,3.3205677E1,2.4983892E0,0E0,0E0,0E0,0E0,0E0,0E0,0E0,0E0,0E0,0E0,0E0,0E0],"parents":[2147483647,0,0,1,1,2,2,3,3,4,4,5,5,6,6,7,7,8,8,9,9,10,10,13,13,14,14],"right_children":[2,4,6,8,10,12,14,16,18,20,22,-1,-1,24,26,-1,-1,-1,-1,-1,-1,-1,-1,-1,-1,-1,-1],"split_conditions":[2.9611775E-1,6.092533E-1,5.43624E-1,2.6608172E-1,4.0020472E-1,2.8725964E-1,7.451403E-1,2.5515252E-1,5.791857E-1,1.1664727E0,-4.9025205E-1,-3.636271E-2,-9.739945E-2,7.2797954E-1,-1.8409264E-1,3.0884445E-2,-1.4577383E-2,1.9668482E-2,-8.149399E-2,1.7096207E-2,1.7133084E-1,-7.951381E-3,4.607215E-2,-5.900643E-3,7.1299486E-2,-3.615926E-2,-1.1943971E-2],"split_indices":[3,7,6,2,6,1,6,1,7,0,5,0,0,6,5,0,0,0,0,0,0,0,0,0,0,0,0],"split_type":[0,0,0,0,0,0,0,0,0,0,0,0,0,0,0,0,0,0,0,0,0,0,0,0,0,0,0],"sum_hessian":[1.672E3,5.75E2,1.097E3,1.11E2,4.64E2,1.6E1,1.081E3,6.9E1,4.2E1,2.6E1,4.38E2,1E1,6E0,8.38E2,2.43E2,3E1,3.9E1,8E0,3.4E1,8E0,1.8E1,2.85E2,1.53E2,7.79E2,5.9E1,5.6E1,1.87E2],"tree_param":{"num_deleted":"0","num_feature":"8","num_nodes":"27","size_leaf_vector":"1"}},{"base_weights":[1.0231718E-3,-2.7360303E-2,1.8519735E-1,1.8700672E-2,-2.4368018E-1,4.8320502E-2,4.395012E-1,2.9372533E-3,1.4452536E0,-9.5655715E-1,-1.650412E-1,-5.7495403E-1,1.8157311E-1,1.2995577E0,1.5815829E-1,-1.2805173E-2,6.3463696E-3,1.9694014E-1,7.003552E-2,5.2135836E-2,-1.357104E-1,-1.35536445E-2,-7.935426E-2,-1.21458545E-1,-9.302276E-3,6.586445E-2,2.4651436E-3,7.168885E-2,1.4493047E-1,-1.5244846E-2,3.7224192E-2],"categories":[],"categories_nodes":[],"categories_segments":[],"categories_sizes":[],"default_left":[0,0,0,0,0,0,0,0,0,0,0,0,0,0,0,0,0,0,0,0,0,0,0,0,0,0,0,0,0,0,0],"id":38,"left_children":[1,3,5,7,9,11,13,15,17,19,21,23,25,27,29,-1,-1,-1,-1,-1,-1,-1,-1,-1,-1,-1,-1,-1,-1,-1,-1],"loss_changes":[8.766463E0,1.4474716E1,7.7270427E0,2.6745808E1,1.4025248E1,1.2273841E1,1.8522411E1,9.388771E0,3.4294243E0,1.5590469E1,4.0831513E0,7.770973E0,9.0487E0,4.021988E-1,4.0684767E0,0E0,0E0,0E0,0E0,0E0,0E0,0E0,0E0,0E0,0E0,0E0,0E0,0E0,0E0,0E0,0E0],"parents":[2147483647,0,0,1,1,2,2,3,3,4,4,5,5,6,6,7,7,8,8,9,9,10,10,11,11,12,12,13,13,14,14],"right_children":[2,4,6,8,10,12,14,16,18,20,22,24,26,28,30,-1,-1,-1,-1,-1,-1,-1,-1,-1,-1,-1,-1,-1,-1,-1,-1],"split_conditions":[3.4231544E-1,3.5514638E-1,7.448708E-1,3.5406303E-1,2.60806E-1,2.3374824E-1,3.0556917E-1,2.6665038E-1,-5.350714E-1,2.057545E-1,5.2572864E-1,1.7652416E0,2.9019716E-1,3.7731028E-1,-4.918698E-1,-1.2805173E-2,6.3463696E-3,1.9694014E-1,7.003552E-2,5.2135836E-2,-1.357104E-1,-1.35536445E-2,-7.935426E-2,-1.21458545E-1,-9.302276E-3,6.586445E-2,2.4651436E-3,7.168885E-2,1.4493047E-1,-1.5244846E-2,3.7224192E-2],"split_indices":[2,1,7,1,3,3,3,2,5,3,4,0,3,1,5,0,0,0,0,0,0,0,0,0,0,0,0,0,0,0,0],"split_type":[0,0,0,0,0,0,0,0,0,0,0,0,0,0,0,0,0,0,0,0,0,0,0,0,0,0,0,0,0,0,0],"sum_hessian":[1.672E3,1.449E3,2.23E2,1.195E3,2.54E2,1.46E2,7.7E1,1.183E3,1.2E1,2.4E1,2.3E2,2.5E1,1.21E2,1.8E1,5.9E1,3.73E2,8.1E2,6E0,6E0,5E0,1.9E1,2.21E2,9E0,1E1,1.5E1,2.9E1,9.2E1,5E0,1.3E1,2.4E1,3.5E1],"tree_param":{"num_deleted":"0","num_feature":"8","num_nodes":"31","size_leaf_vector":"1"}},{"base_weights":[1.0823593E-3,6.2083118E-2,-7.232578E-2,5.289838E-3,2.2691616E-1,-1.9633347E-1,2.2778554E-2,-2.5082052E-1,5.785335E-2,6.8351275E-1,3.9039016E-2,-3.8112825E-1,-1.115519E-1,1.5106457E-1,-2.579284E-1,1.1259566E-2,-6.179021E-2,4.355044E-2,-1.5049484E-3,1.0895709E-1,2.8952857E-2,6.71724E-2,-5.0929855E-3,8.3471177E-4,-5.27977E-2,3.8204696E-2,-1.2478079E-2,-1.0659511E-2,1.0180205E-1,-5.685274E-2,-1.0040223E-2],"categories":[],"categories_nodes":[],"categories_segments":[],"categories_sizes":[],"default_left":[0,0,0,0,0,0,0,0,0,0,0,0,0,0,0,0,0,0,0,0,0,0,0,0,0,0,0,0,0,0,0],"id":39,"left_children":[1,3,5,7,9,11,13,15,17,19,21,23,25,27,29,-1,-1,-1,-1,-1,-1,-1,-1,-1,-1,-1,-1,-1,-1,-1,-1],"loss_changes":[7.49508E0,8.541268E0,8.973223E0,9.176338E0,1.9974533E1,5.078389E0,1.5512912E1,1.5594897E1,1.5659147E1,1.04253025E1,9.602258E0,5.9473476E0,1.510731E0,6.632002E1,6.4812346E0,0E0,0E0,0E0,0E0,0E0,0E0,0E0,0E0,0E0,0E0,0E0,0E0,0E0,0E0,0E0,0E0],"parents":[2147483647,0,0,1,1,2,2,3,3,4,4,5,5,6,6,7,7,8,8,9,9,10,10,11,11,12,12,13,13,14,14],"right_children":[2,4,6,8,10,12,14,16,18,20,22,24,26,28,30,-1,-1,-1,-1,-1,-1,-1,-1,-1,-1,-1,-1,-1,-1,-1,-1],"split_conditions":[4.018577E-1,-4.0995657E-1,-1.3763298E-1,2.869763E-1,-3.8457617E-1,1.2358592E0,3.2948473E-1,1.3943066E-1,4.07032E-1,3.265303E-1,5.803246E-1,5.0287145E-1,1.2907816E0,2.6608172E-1,6.414787E-1,1.1259566E-2,-6.179021E-2,4.355044E-2,-1.5049484E-3,1.0895709E-1,2.8952857E-2,6.71724E-2,-5.0929855E-3,8.3471177E-4,-5.27977E-2,3.8204696E-2,-1.2478079E-2,-1.0659511E-2,1.0180205E-1,-5.685274E-2,-1.0040223E-2],"split_indices":[3,5,5,1,5,0,1,3,4,2,7,3,0,2,3,0,0,0,0,0,0,0,0,0,0,0,0,0,0,0,0],"split_type":[0,0,0,0,0,0,0,0,0,0,0,0,0,0,0,0,0,0,0,0,0,0,0,0,0,0,0,0,0,0,0],"sum_hessian":[1.672E3,9.14E2,7.58E2,6.81E2,2.33E2,3.29E2,4.29E2,1.15E2,5.66E2,6.7E1,1.66E2,1.02E2,2.27E2,2.95E2,1.34E2,5.8E1,5.7E1,9.1E1,4.75E2,3.2E1,3.5E1,2E1,1.46E2,2.8E1,7.4E1,5E0,2.22E2,2.28E2,6.7E1,4.4E1,9E1],"tree_param":{"num_deleted":"0","num_feature":"8","num_nodes":"31","size_leaf_vector":"1"}},{"base_weights":[1.0814074E-3,-2.4239305E-2,1.654294E-1,1.5228036E-2,-2.0964597E-1,4.028217E-2,3.9788085E-1,8.4808597E-4,1.316046E0,-8.623998E-1,-1.3766116E-1,-6.432691E-1,1.414232E-1,1.1829547E0,1.4097613E-1,-1.9327601E-2,3.368277E-3,1.8018852E-1,6.279144E-2,4.7916587E-2,-1.2267496E-1,-1.1215089E-2,-8.222412E-2,-1.7082545E-1,-1.3375617E-2,2.8957127E-2,-1.6996855E-2,7.0535E-2,1.3414377E-1,-1.363686E-2,3.3243842E-2],"categories":[],"categories_nodes":[],"categories_segments":[],"categories_sizes":[],"default_left":[0,0,0,0,0,0,0,0,0,0,0,0,0,0,0,0,0,0,0,0,0,0,0,0,0,0,0,0,0,0,0],"id":40,"left_children":[1,3,5,7,9,11,13,15,17,19,21,23,25,27,29,-1,-1,-1,-1,-1,-1,-1,-1,-1,-1,-1,-1,-1,-1,-1,-1],"loss_changes":[6.980165E0,1.063302E1,6.4564633E0,2.2239206E1,1.17633095E1,1.0203645E1,1.5432594E1,7.537371E0,2.9717693E0,1.2882551E1,3.8484888E0,9.8971615E0,6.0122175E0,2.8729057E-1,3.2510047E0,0E0,0E0,0E0,0E0,0E0,0E0,0E0,0E0,0E0,0E0,0E0,0E0,0E0,0E0,0E0,0E0],"parents":[2147483647,0,0,1,1,2,2,3,3,4,4,5,5,6,6,7,7,8,8,9,9,10,10,11,11,12,12,13,13,14,14],"right_children":[2,4,6,8,10,12,14,16,18,20,22,24,26,28,30,-1,-1,-1,-1,-1,-1,-1,-1,-1,-1,-1,-1,-1,-1,-1,-1],"split_conditions":[3.4231544E-1,3.5514638E-1,7.448708E-1,3.5406303E-1,2.60806E-1,2.2840871E-1,3.0556917E-1,-5.169863E-1,-5.350714E-1,2.057545E-1,7.9026026E-1,1.7652416E0,3.678859E-1,3.780781E-1,-4.918698E-1,-1.9327601E-2,3.368277E-3,1.8018852E-1,6.279144E-2,4.7916587E-2,-1.2267496E-1,-1.1215089E-2,-8.222412E-2,-1.7082545E-1,-1.3375617E-2,2.8957127E-2,-1.6996855E-2,7.0535E-2,1.3414377E-1,-1.363686E-2,3.3243842E-2],"split_indices":[2,1,7,1,3,3,3,5,5,3,7,0,2,1,5,0,0,0,0,0,0,0,0,0,0,0,0,0,0,0,0],"split_type":[0,0,0,0,0,0,0,0,0,0,0,0,0,0,0,0,0,0,0,0,0,0,0,0,0,0,0,0,0,0,0],"sum_hessian":[1.672E3,1.449E3,2.23E2,1.195E3,2.54E2,1.46E2,7.7E1,1.183E3,1.2E1,2.4E1,2.3E2,1.8E1,1.28E2,1.8E1,5.9E1,1.7E2,1.013E3,6E0,6E0,5E0,1.9E1,2.23E2,7E0,5E0,1.3E1,8.7E1,4.1E1,6E0,1.2E1,2.4E1,3.5E1],"tree_param":{"num_deleted":"0","num_feature":"8","num_nodes":"31","size_leaf_vector":"1"}},{"base_weights":[1.0335437E-3,5.684734E-2,-6.6121474E-2,-2.0196041E-1,8.755247E-2,-1.7829882E-1,1.9889332E-2,-9.2373264E-4,-6.2671834E-1,7.139776E-1,5.1791836E-2,-3.4576732E-1,-1.01423584E-1,1.3287531E-1,-2.2724946E-1,2.3368524E-2,-1.0785703E-2,-8.648076E-3,-1.19053975E-1,1.0176963E-2,1.5088949E-1,-1.0286243E-1,7.7477866E-3,4.2194603E-3,-4.654291E-2,3.5469446E-2,-1.1368944E-2,-9.933573E-3,9.1439664E-2,-5.0845366E-2,-8.45963E-3],"categories":[],"categories_nodes":[],"categories_segments":[],"categories_sizes":[],"default_left":[0,0,0,0,0,0,0,0,0,0,0,0,0,0,0,0,0,0,0,0,0,0,0,0,0,0,0,0,0,0,0],"id":41,"left_children":[1,3,5,7,9,11,13,15,17,19,21,23,25,27,29,-1,-1,-1,-1,-1,-1,-1,-1,-1,-1,-1,-1,-1,-1,-1,-1],"loss_changes":[6.273531E0,7.277496E0,7.342572E0,8.219673E0,1.8233158E1,4.1686916E0,1.2027741E1,1.6934849E0,9.2118635E0,2.109818E1,2.1519827E1,4.8436565E0,1.2918105E0,5.388979E1,5.313163E0,0E0,0E0,0E0,0E0,0E0,0E0,0E0,0E0,0E0,0E0,0E0,0E0,0E0,0E0,0E0,0E0],"parents":[2147483647,0,0,1,1,2,2,3,3,4,4,5,5,6,6,7,7,8,8,9,9,10,10,11,11,12,12,13,13,14,14],"right_children":[2,4,6,8,10,12,14,16,18,20,22,24,26,28,30,-1,-1,-1,-1,-1,-1,-1,-1,-1,-1,-1,-1,-1,-1,-1,-1],"split_conditions":[4.018577E-1,9.9574554E-1,-1.3763298E-1,2.85002E-1,4.0020472E-1,1.2358592E0,3.2948473E-1,5.555841E-1,1.010392E-1,1.1664727E0,2.7865526E-1,4.873851E-1,1.2907816E0,2.6608172E-1,6.414787E-1,2.3368524E-2,-1.0785703E-2,-8.648076E-3,-1.19053975E-1,1.0176963E-2,1.5088949E-1,-1.0286243E-1,7.7477866E-3,4.2194603E-3,-4.654291E-2,3.5469446E-2,-1.1368944E-2,-9.933573E-3,9.1439664E-2,-5.0845366E-2,-8.45963E-3],"split_indices":[3,0,5,1,6,0,1,7,3,0,1,3,0,2,3,0,0,0,0,0,0,0,0,0,0,0,0,0,0,0,0],"split_type":[0,0,0,0,0,0,0,0,0,0,0,0,0,0,0,0,0,0,0,0,0,0,0,0,0,0,0,0,0,0,0],"sum_hessian":[1.672E3,9.14E2,7.58E2,9.6E1,8.18E2,3.29E2,4.29E2,6.6E1,3E1,4.3E1,7.75E2,1.02E2,2.27E2,2.95E2,1.34E2,2E1,4.6E1,1.6E1,1.4E1,2.5E1,1.8E1,1.7E1,7.58E2,2.4E1,7.8E1,5E0,2.22E2,2.28E2,6.7E1,4.4E1,9E1],"tree_param":{"num_deleted":"0","num_feature":"8","num_nodes":"31","size_leaf_vector":"1"}},{"base_weights":[8.852826E-4,2.470173E-2,-1.382885E-1,8.4394164E-4,5.677738E-1,2.3628453E-2,-1.55733E-1,1.1530029E-2,-7.974786E-1,1.0315747E0,-3.3793136E-1,-1.9458735E-1,1.9052232E-2,7.56708E-2,1.978792E-4,-1.2688497E-1,-2.8349686E-2,-4.7665082E-2,1.2635112E-1,-4.1904565E-2,-1.4123998E-2,-4.409195E-2,-1.4005979E-2,1.8217044E-2,-2.613454E-2],"categories":[],"categories_nodes":[],"categories_segments":[],"categories_sizes":[],"default_left":[0,0,0,0,0,0,0,0,0,0,0,0,0,0,0,0,0,0,0,0,0,0,0,0,0],"id":42,"left_children":[1,3,5,7,9,-1,11,13,15,17,19,21,23,-1,-1,-1,-1,-1,-1,-1,-1,-1,-1,-1,-1],"loss_changes":[5.537425E0,1.847045E1,1.6230974E0,1.1626525E1,2.5621977E1,0E0,1.610393E0,9.559555E0,3.8460197E0,1.4673443E1,2.1982956E-1,2.4590697E0,2.006424E0,0E0,0E0,0E0,0E0,0E0,0E0,0E0,0E0,0E0,0E0,0E0,0E0],"parents":[2147483647,0,0,1,1,2,2,3,3,4,4,6,6,7,7,8,8,9,9,10,10,11,11,12,12],"right_children":[2,4,6,8,10,-1,12,14,16,18,20,22,24,-1,-1,-1,-1,-1,-1,-1,-1,-1,-1,-1,-1],"split_conditions":[7.451403E-1,7.2797954E-1,2.80724E-1,5.671062E-1,3.8294807E-1,2.3628453E-2,6.463855E-1,3.9283615E-1,3.674263E-1,5.1028645E-1,1.6528603E0,-1.916029E-1,3.3355042E-1,7.56708E-2,1.978792E-4,-1.2688497E-1,-2.8349686E-2,-4.7665082E-2,1.2635112E-1,-4.1904565E-2,-1.4123998E-2,-4.409195E-2,-1.4005979E-2,1.8217044E-2,-2.613454E-2],"split_indices":[6,6,1,3,4,0,7,7,4,3,0,5,1,0,0,0,0,0,0,0,0,0,0,0,0],"split_type":[0,0,0,0,0,0,0,0,0,0,0,0,0,0,0,0,0,0,0,0,0,0,0,0,0],"sum_hessian":[1.672E3,1.429E3,2.43E2,1.37E3,5.9E1,1E1,2.33E2,1.353E3,1.7E1,3.9E1,2E1,1.91E2,4.2E1,1.6E1,1.337E3,8E0,9E0,5E0,3.4E1,1.3E1,7E0,3.3E1,1.58E2,2.7E1,1.5E1],"tree_param":{"num_deleted":"0","num_feature":"8","num_nodes":"25","size_leaf_vector":"1"}},{"base_weights":[7.136337E-4,-1.0227595E-1,3.2387476E-2,-2.6855532E-2,-4.484751E-1,1.163701E0,7.942973E-3,1.7019749E-1,-9.8067686E-2,-5.4051834E-1,6.067393E-2,-7.241837E-2,1.8656698E0,-7.6522696E-1,1.9893082E-2,4.245791E-2,-5.805998E-3,8.048615E-3,-2.369572E-2,4.920626E-2,-6.364345E-2,1.1805525E-1,2.3098066E-1,-8.74634E-2,-3.657393E-2,2.5405934E-2,-2.5957783E-3],"categories":[],"categories_nodes":[],"categories_segments":[],"categories_sizes":[],"default_left":[0,0,0,0,0,0,0,0,0,0,0,0,0,0,0,0,0,0,0,0,0,0,0,0,0,0,0],"id":43,"left_children":[1,3,5,7,9,11,13,15,17,19,-1,-1,21,23,25,-1,-1,-1,-1,-1,-1,-1,-1,-1,-1,-1,-1],"loss_changes":[5.453777E0,1.0201843E1,3.5298874E1,4.5560303E0,7.1201077E0,3.724662E1,1.1536219E1,5.0548496E0,5.9617414E0,6.765276E0,0E0,0E0,3.0098267E0,3.8650322E-1,1.3310736E1,0E0,0E0,0E0,0E0,0E0,0E0,0E0,0E0,0E0,0E0,0E0,0E0],"parents":[2147483647,0,0,1,1,2,2,3,3,4,4,5,5,6,6,7,7,8,8,9,9,12,12,13,13,14,14],"right_children":[2,4,6,8,10,12,14,16,18,20,-1,-1,22,24,26,-1,-1,-1,-1,-1,-1,-1,-1,-1,-1,-1,-1],"split_conditions":[2.6665038E-1,3.4345374E-1,2.6792443E-1,2.2868584E-1,1.4678601E0,-4.036353E-1,-5.435179E-1,2.712253E-1,6.663204E-1,8.71687E-2,6.067393E-2,-7.241837E-2,2.6733625E-1,7.100314E-1,4.927317E-1,4.245791E-2,-5.805998E-3,8.048615E-3,-2.369572E-2,4.920626E-2,-6.364345E-2,1.1805525E-1,2.3098066E-1,-8.74634E-2,-3.657393E-2,2.5405934E-2,-2.5957783E-3],"split_indices":[2,4,2,4,0,5,5,1,6,3,0,0,2,7,6,0,0,0,0,0,0,0,0,0,0,0,0],"split_type":[0,0,0,0,0,0,0,0,0,0,0,0,0,0,0,0,0,0,0,0,0,0,0,0,0,0,0],"sum_hessian":[1.672E3,3.92E2,1.28E3,3.23E2,6.9E1,2.6E1,1.254E3,8.5E1,2.38E2,6.4E1,5E0,7E0,1.9E1,1.8E1,1.236E3,4E1,4.5E1,1.04E2,1.34E2,5E0,5.9E1,9E0,1E1,1.3E1,5E0,2.02E2,1.034E3],"tree_param":{"num_deleted":"0","num_feature":"8","num_nodes":"27","size_leaf_vector":"1"}},{"base_weights":[7.813468E-4,-2.9859861E-2,1.0502885E-1,2.8631445E-2,-1.06169075E-1,1.3348016E-1,6.801395E-2,-5.224287E-2,2.7386835E-1,-2.2450638E-1,5.2524894E-3,-4.645873E-1,1.7463739E-1,4.5534815E-3,-2.6315687E-2,8.983099E-2,2.9774548E-3,-1.0056522E-1,-9.3488535E-3,6.911662E-2,-1.5063188E-2,-1.19971536E-1,-2.4302851E-2,6.418165E-2,5.7208715E-3],"categories":[],"categories_nodes":[],"categories_segments":[],"categories_sizes":[],"default_left":[0,0,0,0,0,0,0,0,0,0,0,0,0,0,0,0,0,0,0,0,0,0,0,0,0],"id":44,"left_children":[1,3,5,7,9,-1,11,13,15,17,19,21,23,-1,-1,-1,-1,-1,-1,-1,-1,-1,-1,-1,-1],"loss_changes":[5.354666E0,5.782003E0,1.7112019E1,1.4554496E1,7.433258E0,0E0,2.1120405E1,1.1396843E1,2.76213E1,2.7735987E1,3.11659E1,9.6623535E0,1.6900043E1,0E0,0E0,0E0,0E0,0E0,0E0,0E0,0E0,0E0,0E0,0E0,0E0],"parents":[2147483647,0,0,1,1,2,2,3,3,4,4,6,6,7,7,8,8,9,9,10,10,11,11,12,12],"right_children":[2,4,6,8,10,-1,12,14,16,18,20,22,24,-1,-1,-1,-1,-1,-1,-1,-1,-1,-1,-1,-1],"split_conditions":[1.7886426E0,4.07032E-1,1.9656569E-1,1.2242948E0,7.073033E-1,1.3348016E-1,-5.215003E-1,5.803246E-1,2.4504232E-1,-5.0126594E-1,4.9794987E-1,2.2386909E-1,5.525614E-1,4.5534815E-3,-2.6315687E-2,8.983099E-2,2.9774548E-3,-1.0056522E-1,-9.3488535E-3,6.911662E-2,-1.5063188E-2,-1.19971536E-1,-2.4302851E-2,6.418165E-2,5.7208715E-3],"split_indices":[0,4,3,0,7,0,5,7,3,5,6,3,6,0,0,0,0,0,0,0,0,0,0,0,0],"split_type":[0,0,0,0,0,0,0,0,0,0,0,0,0,0,0,0,0,0,0,0,0,0,0,0,0],"sum_hessian":[1.672E3,1.292E3,3.8E2,7.31E2,5.61E2,1E1,3.7E2,5.5E2,1.81E2,2.72E2,2.89E2,6.1E1,3.09E2,3.76E2,1.74E2,5E1,1.31E2,3.8E1,2.34E2,5.3E1,2.36E2,1.3E1,4.8E1,6.1E1,2.48E2],"tree_param":{"num_deleted":"0","num_feature":"8","num_nodes":"25","size_leaf_vector":"1"}},{"base_weights":[7.476196E-4,-9.882419E-2,2.8782895E-2,1.4960095E-1,-1.7458922E-1,5.449543E-1,8.59133E-3,-2.5377822E-1,2.7719736E-1,-9.0216E-2,-3.2161826E-1,1.08789675E-1,1.2845273E0,-8.753844E-1,2.2922719E-2,-3.9326042E-2,-8.213437E-3,3.6736436E-2,-0E0,2.188335E-3,-2.100697E-2,-6.4303115E-2,-1.7081784E-2,9.978823E-2,-1.3091949E-2,1.7091724E-1,7.6389395E-2,-4.1261386E-2,-1.03709936E-1,5.2615922E-2,-2.1313234E-4],"categories":[],"categories_nodes":[],"categories_segments":[],"categories_sizes":[],"default_left":[0,0,0,0,0,0,0,0,0,0,0,0,0,0,0,0,0,0,0,0,0,0,0,0,0,0,0,0,0,0,0],"id":45,"left_children":[1,3,5,7,9,11,13,15,17,19,21,23,25,27,29,-1,-1,-1,-1,-1,-1,-1,-1,-1,-1,-1,-1,-1,-1,-1,-1],"loss_changes":[4.666058E0,6.9362698E0,1.3561921E1,4.499085E0,3.4280987E0,1.5527129E1,1.5884587E1,4.229269E-1,1.676496E0,2.455245E0,4.75263E0,7.0372953E0,2.426588E0,9.238472E-1,1.5687581E1,0E0,0E0,0E0,0E0,0E0,0E0,0E0,0E0,0E0,0E0,0E0,0E0,0E0,0E0,0E0,0E0],"parents":[2147483647,0,0,1,1,2,2,3,3,4,4,5,5,6,6,7,7,8,8,9,9,10,10,11,11,12,12,13,13,14,14],"right_children":[2,4,6,8,10,12,14,16,18,20,22,24,26,28,30,-1,-1,-1,-1,-1,-1,-1,-1,-1,-1,-1,-1,-1,-1,-1,-1],"split_conditions":[9.498345E-1,6.3169456E-1,1.310306E-1,2.8128007E-1,2.8615004E-1,1.1664727E0,2.7791896E-1,1.8371145E-1,4.063425E-1,6.663204E-1,5.0287145E-1,2.5515252E-1,6.252532E-1,1.062393E0,3.32452E-1,-3.9326042E-2,-8.213437E-3,3.6736436E-2,-0E0,2.188335E-3,-2.100697E-2,-6.4303115E-2,-1.7081784E-2,9.978823E-2,-1.3091949E-2,1.7091724E-1,7.6389395E-2,-4.1261386E-2,-1.03709936E-1,5.2615922E-2,-2.1313234E-4],"split_indices":[0,0,3,7,1,0,1,2,7,6,3,1,7,0,4,0,0,0,0,0,0,0,0,0,0,0,0,0,0,0,0],"split_type":[0,0,0,0,0,0,0,0,0,0,0,0,0,0,0,0,0,0,0,0,0,0,0,0,0,0,0,0,0,0,0],"sum_hessian":[1.672E3,3.66E2,1.306E3,8.5E1,2.81E2,4.8E1,1.258E3,2E1,6.5E1,1.8E2,1.01E2,3.1E1,1.7E1,1.9E1,1.239E3,1E1,1E1,4.9E1,1.6E1,9.3E1,8.7E1,3.1E1,7E1,6E0,2.5E1,8E0,9E0,6E0,1.3E1,5.8E1,1.181E3],"tree_param":{"num_deleted":"0","num_feature":"8","num_nodes":"31","size_leaf_vector":"1"}},{"base_weights":[7.2251353E-4,-1.02332555E-1,2.774541E-2,5.4628637E-2,-2.2837737E-1,3.1229365E-1,-5.1919E-3,-2.4485715E-2,2.5704178E-1,4.349719E-1,-2.8324813E-1,1.9695112E-1,1.6169798E-1,-7.000567E-1,4.789269E-3,-2.2608722E-2,1.0297736E-2,4.5295138E-2,7.0744166E-3,9.1964714E-2,-9.157482E-3,-1.8865345E-2,-5.0872635E-2,-5.5286116E-3,9.5851555E-2,-8.718211E-2,-3.1584725E-2,3.3710252E-2,-2.070945E-3],"categories":[],"categories_nodes":[],"categories_segments":[],"categories_sizes":[],"default_left":[0,0,0,0,0,0,0,0,0,0,0,0,0,0,0,0,0,0,0,0,0,0,0,0,0,0,0,0,0],"id":46,"left_children":[1,3,5,7,9,11,13,15,17,19,21,23,-1,25,27,-1,-1,-1,-1,-1,-1,-1,-1,-1,-1,-1,-1,-1,-1],"loss_changes":[4.6544285E0,6.894949E0,1.2469313E1,2.5116858E0,7.1329374E0,2.0267178E1,8.326199E0,2.9136286E0,1.5214765E0,3.9950862E0,3.6521854E0,2.4731464E1,0E0,7.2776127E-1,9.986583E0,0E0,0E0,0E0,0E0,0E0,0E0,0E0,0E0,0E0,0E0,0E0,0E0,0E0,0E0],"parents":[2147483647,0,0,1,1,2,2,3,3,4,4,5,5,6,6,7,7,8,8,9,9,10,10,11,11,13,13,14,14],"right_children":[2,4,6,8,10,12,14,16,18,20,22,24,-1,26,28,-1,-1,-1,-1,-1,-1,-1,-1,-1,-1,-1,-1,-1,-1],"split_conditions":[2.6067075E-1,2.753789E-1,2.7282077E-1,1.9861436E-1,-5.435179E-1,6.7724055E-1,-5.435179E-1,4.832837E-1,2.7352142E-1,2.5515252E-1,5.76091E-1,5.43624E-1,1.6169798E-1,3.1259316E-1,4.5353973E-1,-2.2608722E-2,1.0297736E-2,4.5295138E-2,7.0744166E-3,9.1964714E-2,-9.157482E-3,-1.8865345E-2,-5.0872635E-2,-5.5286116E-3,9.5851555E-2,-8.718211E-2,-3.1584725E-2,3.3710252E-2,-2.070945E-3],"split_indices":[2,4,2,2,5,7,5,3,1,1,7,6,0,1,6,0,0,0,0,0,0,0,0,0,0,0,0,0,0],"split_type":[0,0,0,0,0,0,0,0,0,0,0,0,0,0,0,0,0,0,0,0,0,0,0,0,0,0,0,0,0],"sum_hessian":[1.672E3,3.46E2,1.326E3,1.54E2,1.92E2,1.37E2,1.189E3,1.11E2,4.3E1,1.4E1,1.78E2,1.27E2,1E1,1.6E1,1.173E3,4.3E1,6.8E1,2E1,2.3E1,7E0,7E0,1.27E2,5.1E1,9.6E1,3.1E1,1E1,6E0,8.3E1,1.09E3],"tree_param":{"num_deleted":"0","num_feature":"8","num_nodes":"29","size_leaf_vector":"1"}},{"base_weights":[7.686249E-4,-1.5637636E-2,1.7315216E-1,1.26247825E-2,-1.1978378E-1,3.7214363E-1,-1.085924E-1,6.073382E-4,1.0252045E0,-5.4612947E-1,-6.4819604E-2,-8.798366E-2,4.782901E-1,-2.9509655E-1,4.2814404E-1,-1.6822405E-2,2.903674E-3,1.6497988E-1,4.837857E-2,3.3614025E-2,-8.0455355E-2,4.059504E-2,-1.0330894E-2,1.02635756E-1,3.6500823E-2,-5.606841E-2,-2.4112796E-3,7.302667E-2,1.009079E-2],"categories":[],"categories_nodes":[],"categories_segments":[],"categories_sizes":[],"default_left":[0,0,0,0,0,0,0,0,0,0,0,0,0,0,0,0,0,0,0,0,0,0,0,0,0,0,0,0,0],"id":47,"left_children":[1,3,5,7,9,11,13,15,17,19,21,-1,23,25,27,-1,-1,-1,-1,-1,-1,-1,-1,-1,-1,-1,-1,-1,-1],"loss_changes":[4.7499866E0,4.5097766E0,8.252222E0,1.4523479E1,7.566339E0,1.1809484E1,6.2193565E0,5.697899E0,3.7228327E0,8.753274E0,5.284485E0,0E0,4.453121E0,3.2386155E0,1.42504E0,0E0,0E0,0E0,0E0,0E0,0E0,0E0,0E0,0E0,0E0,0E0,0E0,0E0,0E0],"parents":[2147483647,0,0,1,1,2,2,3,3,4,4,5,5,6,6,7,7,8,8,9,9,10,10,12,12,13,13,14,14],"right_children":[2,4,6,8,10,12,14,16,18,20,22,-1,24,26,28,-1,-1,-1,-1,-1,-1,-1,-1,-1,-1,-1,-1,-1,-1],"split_conditions":[3.5301653E-1,3.5514638E-1,3.6655492E-1,3.5406303E-1,2.60806E-1,2.2495028E-1,3.8570514E-1,-5.169863E-1,1.8337398E0,4.840238E-1,2.945874E-1,-8.798366E-2,-5.089941E-1,-4.1446397E-1,7.497609E-1,-1.6822405E-2,2.903674E-3,1.6497988E-1,4.837857E-2,3.3614025E-2,-8.0455355E-2,4.059504E-2,-1.0330894E-2,1.02635756E-1,3.6500823E-2,-5.606841E-2,-2.4112796E-3,7.302667E-2,1.009079E-2],"split_indices":[2,1,2,1,3,3,2,5,0,6,3,0,5,5,7,0,0,0,0,0,0,0,0,0,0,0,0,0,0],"split_type":[0,0,0,0,0,0,0,0,0,0,0,0,0,0,0,0,0,0,0,0,0,0,0,0,0,0,0,0,0],"sum_hessian":[1.672E3,1.527E3,1.45E2,1.201E3,3.26E2,8.5E1,6E1,1.188E3,1.3E1,3.6E1,2.9E2,6E0,7.9E1,4.5E1,1.5E1,1.7E2,1.018E3,5E0,8E0,8E0,2.8E1,2.1E1,2.69E2,1.2E1,6.7E1,2.2E1,2.3E1,7E0,8E0],"tree_param":{"num_deleted":"0","num_feature":"8","num_nodes":"29","size_leaf_vector":"1"}},{"base_weights":[8.583244E-4,2.215724E-2,-1.2356097E-1,3.715184E-4,5.17925E-1,-1.5552042E-1,2.7122062E-2,1.1984519E-2,-5.9699273E-1,9.269424E-1,-2.810569E-1,-3.7216172E-1,-1.1042383E-1,-7.7263705E-2,3.8932145E-2,-1.1444422E-2,4.361471E-3,-8.02366E-3,-1.02705255E-1,-5.0805276E-3,1.21566944E-1,-3.530758E-2,-1.0739181E-2,-5.120979E-2,-1.5410267E-2,1.6525319E-2,-1.2943027E-2,5.2806283E-3,-2.7399272E-2],"categories":[],"categories_nodes":[],"categories_segments":[],"categories_sizes":[],"default_left":[0,0,0,0,0,0,0,0,0,0,0,0,0,0,0,0,0,0,0,0,0,0,0,0,0,0,0,0,0],"id":48,"left_children":[1,3,5,7,9,11,13,15,17,19,21,23,25,27,-1,-1,-1,-1,-1,-1,-1,-1,-1,-1,-1,-1,-1,-1,-1],"loss_changes":[4.4260406E0,1.539292E1,1.1921E0,9.459543E0,1.993296E1,1.8841419E0,1.68705E0,5.380516E0,5.585E0,1.1470329E1,1.7868626E-1,8.919525E-1,9.033053E-1,9.0659755E-1,0E0,0E0,0E0,0E0,0E0,0E0,0E0,0E0,0E0,0E0,0E0,0E0,0E0,0E0,0E0],"parents":[2147483647,0,0,1,1,2,2,3,3,4,4,5,5,6,6,7,7,8,8,9,9,10,10,11,11,12,12,13,13],"right_children":[2,4,6,8,10,12,14,16,18,20,22,24,26,28,-1,-1,-1,-1,-1,-1,-1,-1,-1,-1,-1,-1,-1,-1,-1],"split_conditions":[7.451403E-1,7.2797954E-1,6.463855E-1,5.5837274E-1,3.8294807E-1,-1.916029E-1,3.3472884E-1,2.5624454E-1,9.397571E-1,9.70824E-1,1.6528603E0,3.7744996E-1,2.80724E-1,-1.338821E-1,3.8932145E-2,-1.1444422E-2,4.361471E-3,-8.02366E-3,-1.02705255E-1,-5.0805276E-3,1.21566944E-1,-3.530758E-2,-1.0739181E-2,-5.120979E-2,-1.5410267E-2,1.6525319E-2,-1.2943027E-2,5.2806283E-3,-2.7399272E-2],"split_indices":[6,6,7,3,4,5,2,2,0,0,0,4,1,5,0,0,0,0,0,0,0,0,0,0,0,0,0,0,0],"split_type":[0,0,0,0,0,0,0,0,0,0,0,0,0,0,0,0,0,0,0,0,0,0,0,0,0,0,0,0,0],"sum_hessian":[1.672E3,1.429E3,2.43E2,1.37E3,5.9E1,2.01E2,4.2E1,1.345E3,2.5E1,3.9E1,2E1,3.3E1,1.68E2,3.3E1,9E0,2.68E2,1.077E3,1.2E1,1.3E1,9E0,3E1,1.3E1,7E0,1.9E1,1.4E1,1E1,1.58E2,2E1,1.3E1],"tree_param":{"num_deleted":"0","num_feature":"8","num_nodes":"29","size_leaf_vector":"1"}},{"base_weights":[6.8066403E-4,-2.561339E-2,9.0175495E-2,8.0973975E-2,-5.998459E-2,1.0952096E0,5.7065807E-2,-3.275389E-2,9.1348374E-1,-6.9306034E-1,-1.6316371E-2,1.3742867E-1,5.7041794E-2,-4.2280823E-1,1.5163113E-1,9.1914935E-3,-7.7933125E-2,1.5313135E-1,4.396246E-2,-1.90214E-1,-5.3066354E-2,5.0001066E-2,-3.4455971E-3,-1.1960443E-1,-2.0699438E-2,5.2708246E-2,3.7471603E-3],"categories":[],"categories_nodes":[],"categories_segments":[],"categories_sizes":[],"default_left":[0,0,0,0,0,0,0,0,0,0,0,0,0,0,0,0,0,0,0,0,0,0,0,0,0,0,0],"id":49,"left_children":[1,3,5,7,9,11,13,15,17,19,21,-1,-1,23,25,-1,-1,-1,-1,-1,-1,-1,-1,-1,-1,-1,-1],"loss_changes":[3.9456394E0,4.7397103E0,1.2500567E1,2.994205E1,2.6982494E1,7.791004E-1,1.6827385E1,2.6015202E1,1.0254751E1,1.1117414E1,8.559263E0,0E0,0E0,9.791502E0,1.3210812E1,0E0,0E0,0E0,0E0,0E0,0E0,0E0,0E0,0E0,0E0,0E0,0E0],"parents":[2147483647,0,0,1,1,2,2,3,3,4,4,5,5,6,6,7,7,8,8,9,9,10,10,13,13,14,14],"right_children":[2,4,6,8,10,12,14,16,18,20,22,-1,-1,24,26,-1,-1,-1,-1,-1,-1,-1,-1,-1,-1,-1,-1],"split_conditions":[1.7886426E0,4.9794987E-1,1.9938907E-1,7.1203226E-1,-4.780022E-1,4.6744892E-1,-5.215003E-1,1.519012E0,3.522487E-1,5.004969E-1,2.6560485E-1,1.3742867E-1,5.7041794E-2,2.2386909E-1,2.9611775E-1,9.1914935E-3,-7.7933125E-2,1.5313135E-1,4.396246E-2,-1.90214E-1,-5.3066354E-2,5.0001066E-2,-3.4455971E-3,-1.1960443E-1,-2.0699438E-2,5.2708246E-2,3.7471603E-3],"split_indices":[0,6,3,7,5,6,5,0,1,6,3,0,0,3,3,0,0,0,0,0,0,0,0,0,0,0,0],"split_type":[0,0,0,0,0,0,0,0,0,0,0,0,0,0,0,0,0,0,0,0,0,0,0,0,0,0,0],"sum_hessian":[1.672E3,1.292E3,3.8E2,3.14E2,9.78E2,1.1E1,3.69E2,2.77E2,3.7E1,6.2E1,9.16E2,6E0,5E0,6E1,3.09E2,2.38E2,3.9E1,1.5E1,2.2E1,6E0,5.6E1,3E1,8.86E2,1.2E1,4.8E1,7.1E1,2.38E2],"tree_param":{"num_deleted":"0","num_feature":"8","num_nodes":"27","size_leaf_vector":"1"}},{"base_weights":[6.438445E-4,-1.3452935E-2,1.4885779E-1,1.1264692E-2,-1.0457567E-1,3.25041E-1,-1.0033263E-1,8.558153E-4,8.8732827E-1,-4.740053E-1,-5.690051E-2,-7.6757245E-2,4.178317E-1,-2.686316E-1,3.8354772E-1,-1.5304387E-2,2.4170608E-3,1.443449E-1,4.068781E-2,1.8688628E-2,-7.6464735E-2,-1.730069E-2,5.4241195E-3,1.00878716E-1,3.1756964E-2,-4.999885E-2,-3.1554953E-3,1.1325551E-3,5.957485E-2],"categories":[],"categories_nodes":[],"categories_segments":[],"categories_sizes":[],"default_left":[0,0,0,0,0,0,0,0,0,0,0,0,0,0,0,0,0,0,0,0,0,0,0,0,0,0,0,0,0],"id":50,"left_children":[1,3,5,7,9,11,13,15,17,19,21,-1,23,25,27,-1,-1,-1,-1,-1,-1,-1,-1,-1,-1,-1,-1,-1,-1],"loss_changes":[3.5110073E0,3.4520814E0,6.4649463E0,1.0871265E1,5.679264E0,9.004793E0,5.059172E0,4.2571096E0,2.968295E0,7.307746E0,3.776401E0,0E0,4.287036E0,2.454137E0,1.1963186E0,0E0,0E0,0E0,0E0,0E0,0E0,0E0,0E0,0E0,0E0,0E0,0E0,0E0,0E0],"parents":[2147483647,0,0,1,1,2,2,3,3,4,4,5,5,6,6,7,7,8,8,9,9,10,10,12,12,13,13,14,14],"right_children":[2,4,6,8,10,12,14,16,18,20,22,-1,24,26,28,-1,-1,-1,-1,-1,-1,-1,-1,-1,-1,-1,-1,-1,-1],"split_conditions":[3.5301653E-1,3.5514638E-1,3.6655492E-1,3.5406303E-1,